svm_type c_svc
kernel_type linear
nr_class 31
total_sv 874
rho -0.4196975573973479 -0.7362453704252567 -0.6786355086358037 -1.2355968436090785 0.9860403201125494 -1.639144420637137 -1.3945284858951255 -0.6932075780270187 -0.8158532181383956 -0.062338775785013394 -1.157490941806289 -0.38547052356791656 -0.4134557317883648 -0.3772889878030479 -1.4174958108756162 -0.5644089269933423 -0.5755438559245735 -1.005766579526615 -0.1256666489500797 -1.265016843329478 -1.2138281946993976 -1.2758951241928986 -0.5666079244883527 0.27049286110091647 0.2689861123061142 -0.6596731030624989 -0.9054235722582068 -0.21472787127089726 0.4104706098559852 -0.19531268386103615 -0.6412548563964177 -0.34281121220929195 -0.9134978808710432 1.2796013262180719 -1.8500991336420414 -0.9892219674969485 -0.5599656774081245 -0.6302163323263915 0.10036868689313984 -0.9925557141432545 -0.3071771451247202 -0.22135261825686586 -0.09335388867136934 -1.0014683799326194 -0.31853231720774006 -0.36066219280629075 -0.736825631125247 -0.0935142522413742 -0.585661991687952 -1.124075308352414 -1.1505705018102028 -0.505296994604683 0.3403096303240319 0.5785688778442436 -0.46400105734642005 -0.8695747098962047 -0.14642804969518441 0.45482789115531863 0.042529821551613084 0.4520823831225588 -0.15298312132674213 1.3341700539508707 -0.51369985208114 -0.7097559200212411 1.0656958431655992 0.6240428815072186 0.5104147389873331 -0.8883673106674624 0.8138695961866154 0.684707961812866 0.5822717252704182 -0.4027301963174591 0.29663984521334685 0.29200653597635545 -0.2218278189031278 0.8309463980301262 0.43814358103813 -0.4800649086754996 -0.9173559509923211 0.6164335861877531 1.244739628242293 1.54508717016954 -0.27847693879316615 -0.8169726654285737 0.8443734292721372 1.4481355792584414 0.7548449580092033 -1.1677125593366233 1.281855977816358 -1.669320662792226 -0.8319909076281543 -0.15750267011590333 -0.24616620566364786 0.37469044064986956 -0.9382976385858122 0.01300690660207912 -0.09856771386094426 0.34238058210445893 -0.693809937801317 -0.15808524590498163 0.044887232231701095 -0.6328435557018548 0.5167858664258971 0.11076793449734834 -0.890104156841625 -1.0597991540001965 -0.2414971971778847 0.6896135099906505 1.043278066694555 -0.12706346436264435 -0.7823033744251396 0.4901968596118029 0.9643255167687608 0.48354550893728193 1.551764141411246 -0.3244645395649565 -0.6939549383569914 0.6308175135109277 0.5299537038047046 1.32636271852585 -0.9620871299462158 0.5854048845230733 1.1384782548350474 0.7609875172706583 -0.017836649965350282 0.5078386328164547 0.6233308719056938 0.011395430116058132 1.3296359986851947 1.077885853561181 -0.44060631826571595 -0.8860020865779674 1.1513928466065635 1.1464100881523815 1.4479352949789663 0.28252347667891947 -0.707294065639519 0.8164657958751425 1.1266016807235757 1.0164148740307348 -1.7775969595192629 -1.4440096742415596 -1.7675761898556723 -1.0924275046731442 -0.6472891536387356 -1.0876852338689924 -0.7417671599707217 -1.001829482078368 -0.9798383658894352 -1.34968035660488 -0.8494710075885202 -1.085252878803325 -1.294464556021173 -0.9554331933418372 -1.187427917629361 -1.6108115256943403 -1.2981528052075055 -1.2144618092679706 -0.20857716651772007 0.05138443078814923 -1.1703895365777541 -1.1474890210521314 -1.0043397125913702 -0.41616402508579436 -1.9186318313284105 -0.1063087157186669 0.9942422410351652 0.7655400028802946 0.9015263180969401 -0.755581995677116 0.6585861646540687 0.7266609602020412 1.0602150525960963 -0.034463233006916484 1.0156264504903787 0.8010024379701851 0.15636537889363294 1.392219910944077 1.3681608802408216 0.38542421438797764 -0.9386328862357579 1.7214919710085275 1.6125302362979637 1.7763983947890942 0.6694796725594263 -0.756564185942886 1.311579553478055 1.7222865477099623 1.1778631426523944 1.1317731895442908 0.5163604706505133 1.456034470503599 -0.7758829714920766 1.1929762835915798 1.138094988912348 0.6630099995301205 0.27083948816750686 0.6744702626601411 0.5532646528818023 0.44178316626868425 1.1043676325135605 1.3576334611301077 0.08491313356511412 -0.6436396821531106 0.9970469642363086 1.264593028899281 1.122034387968301 0.47260687108874333 -0.4704118457060308 0.725995379494244 1.100258357896247 1.0459969255724733 0.2056156774638617 0.4602745954555051 -1.0087706505143048 -0.10383191212108486 -0.025151659056434378 0.3419852639954487 -0.9414078408986181 0.2384204433240932 -0.08733054979805203 -0.5325899696733413 0.2813329880640155 0.21010796702922926 -0.9802520027823713 -0.9867705234002759 0.3328601179898031 0.7364393809414104 1.296377478301563 -0.5204940084847347 -0.9564659413158145 0.7310869272099968 1.481824265820024 0.5480298354202531 0.2726975431529214 -1.0085117154017582 -0.14231589001839212 0.1424379460230451 0.3725011705596689 -0.5297902440794089 -0.45135697094942123 0.1130263553992387 -0.7754821740593926 0.35243284814335724 0.05133836264146064 -0.8359216398528247 -0.9162804308864343 0.21561598898887285 0.9001129078523649 1.0212794515785182 -0.5333396960851458 -1.0498957264327302 0.6273130357352488 1.2068146270294215 0.5541019079454931 -1.0849773448617173 0.03048288521932448 -0.616681940686293 -0.15876814864630845 -1.1865512515093495 -0.1531241855473152 -0.1840511190627748 -0.6425962733890167 -0.06334625733580052 -0.5197253701647253 -1.0471702357635873 -1.0358030596582384 -0.24131819016247222 0.313276440231983 0.7687358258644251 -0.3199881852672748 -0.8267083372153902 0.07441387177256398 0.260926741253006 0.10415448766768427 1.152518529032348 1.2547829561538533 0.8838652343765536 0.8659271676858513 0.9075020336016777 0.9073857653048365 0.796506562888801 1.0314387603781248 1.05514249798276 0.6828999745425276 0.05076842697230899 1.0441920672340201 1.0416640471152576 1.0478007602394879 0.7899490124766332 0.11019148470181006 0.8981547220535147 0.9677817742906664 1.088260457241753 -0.014666125868299565 0.21491415575237874 -1.2128000774810377 -0.15236467420336358 -0.11438383918540754 -0.37080574058815785 0.3414111781276488 -0.07641225783892126 -0.5396114268808525 -0.8380763559041787 0.19862474868459887 0.40359881820447707 0.627699315573694 -0.14558439956725933 -0.7292757960531726 0.22469446858986333 0.5419874070611511 0.3558797187337528 0.3087044654093589 -0.8978355388583383 -0.2674555282817178 -0.3562428177850418 -0.5638186101353494 0.34079436117160683 0.16141939746459322 -0.9208083979283421 -1.0109166166388994 0.201362504898635 0.5215266158675195 0.8831024207495922 -0.3043360975820491 -0.8361522151823824 0.3083940439805106 0.8758133356798622 0.21609605847661778 -0.7832638750518444 -0.4690428235088959 -0.3770116726680411 -0.6612889449715205 -0.2812919017077529 -0.7848269537678113 -1.1035464805091875 -1.1283727899066953 -0.13512122825098521 0.340460361077216 0.9219736146488599 -0.4315482960597438 -0.8755151595270967 0.17451076227851653 0.8153083961001619 0.20873648139839768 0.5494993874280919 0.5332795454416411 -0.004888241047762018 0.9346828463466988 0.8995943932394563 0.01007640153084888 -0.7945128927300544 1.0523471466639416 1.4319850418866065 1.0946763123653898 0.42589683178652643 -0.5621438067928366 0.745784212339794 1.064472116203364 1.2216825309142767 -0.02559199052156988 -0.4553360184256194 0.2239041114165023 -0.191166619891582 -0.8573121418315381 -1.1006933328654491 0.3252860458242433 0.9246170495071894 1.1510743355172763 -0.4273455423792454 -0.8811597772876233 0.7491731175880142 1.1686605444553468 0.48425799650325785 -0.296479551671227 0.25581698331871655 0.020142480063460765 -0.6856625071651986 -0.9482623766909534 0.2887565290745081 0.9575768067759998 1.4172868478703673 -0.11226579668193126 -1.016366437957899 0.9680566611392021 2.0038078027320956 0.3500029734750881 0.9626029067117855 0.6291213494811396 -0.31034786142461473 -0.8099277407497979 0.6468613071180906 1.1927067292698792 1.0008778442605144 0.18959129850854475 -0.7531893880278899 0.8542003363592188 1.218105696252548 0.9013719841375476 -0.6136776677149847 -1.2553894080815753 -1.2479782753518742 -0.13985066163654494 0.7574083044556972 1.0362555249205896 -0.6076933334296551 -1.0130805683385369 0.58075544994224 0.8777972645528361 0.21154718764832436 -1.1363066790550795 -1.217155820155819 0.19977595667140957 0.9640557004550465 1.1381012416729788 -0.32381632358545753 -0.9012322703538691 0.4878565966729027 1.0298354832858303 0.3619202989115561 -0.8569271187013289 0.8389533785138621 1.3469039807027878 1.7025154756941017 0.3271618309023366 -0.8079287685856043 1.2217206580746858 1.5858045851495735 0.8996733570863684 1.1524779408253045 1.0862433939289828 1.1826798981419113 0.9205958496626155 0.10179468358140586 1.0735363310118986 1.1860508444413755 1.1006337182411492 0.4121195037708399 0.7581930166842298 -0.3715847521123474 -0.8474185217225733 0.09026065260491588 0.5915759623299217 0.24774321569996585 0.10117776606402462 -1.3506142953042746 -1.0770456103331085 -0.21778169093964622 0.15647313493915044 -0.2753521082590569 -1.1314961485706565 -1.2073419194316615 -0.44776937287735225 0.048623240979620314 -0.4594816576637654 -1.1563637266486462 0.9942914908265941 1.521829028176936 0.44446760705226424 1.093269462819585 1.1756534597339277 0.8906639952493576 0.7819181318542092 0.012433497958141658 -0.5576296359035204
label 2 3 4 5 6 7 8 9 10 11 12 -20 13 14 15 16 17 20 22 23 25 27 -5 28 30 31 32 0 33 34 35
probA -2.470641223308489 -4.156738069070992 -3.241349099807245 -4.418228462531706 -4.105201723216762 -4.1690562981643025 -3.50600612134521 -3.026115722408719 -3.9315508165116237 -4.186406533235092 -1.0173011056551904 -3.036943443548945 -3.4153778683408933 -4.0020143876991225 -3.6804366460781446 -3.3837584831938194 -4.0467228417867664 -4.3792977442692544 -4.409140065103082 -3.3063887363699167 -4.814370462683072 -0.49495984499662693 -3.0607429002636466 -3.5444588575783174 -3.9921683572233913 -3.8192563756054083 -0.27595027346528866 -3.7128068572963366 -2.9596469883576977 -2.81736677439231 -3.9587004151235607 -4.444228912297545 -4.105368649990478 -4.4791611809324 -4.720620869901127 -3.9360750011437364 -4.167937085320932 -4.355879624757491 -3.9512895254601554 -0.7636287556500736 -3.879128988222744 -4.1820768335468 -4.024905322650206 -4.025460978186833 -4.226546559070323 -4.196054574760537 -4.347743621746582 -3.6324827289746504 -3.968566546235341 -4.4685164118318355 -0.39590402253898094 -3.714174059430843 -4.173691275154702 -4.131024350431403 -4.071133491252529 -1.0030180776999928 -4.259580009715385 -4.156233300184602 -4.492021693981077 -4.122072669699924 -3.5490211657107085 -4.1524734521904145 -3.408583180629077 -4.588467992352245 -1.8421512541054301 -3.496825124192484 -3.9116636847051023 -0.7552357200001939 -3.3745787642681835 -3.020622440376717 -4.7180484736019475 -2.9772489829733484 -4.293173080811413 -3.403161605530183 -4.623379387562994 -3.647517684128349 -3.8512764579526335 -4.195586894381274 -1.7597946496621844 -3.923395351948416 -3.353027968198558 -3.5108718712111857 -4.108786691430277 -1.3026204740526177 -3.474909531049897 -4.238784161546723 -4.230487275597418 -4.237854422797143 -4.272180557966883 -3.166536667694892 -4.204064629276172 -4.222291017415452 -1.9244714355332322 -4.174301816998011 -1.5262973601593894 -4.11033849237893 -4.301964962303812 -4.1319743452875155 -3.7017452989404274 -3.558090644545206 -4.357051144675473 -4.546159133271461 -3.7392835132103626 -4.227962733171181 -4.6743920212734995 0.028087800650640156 -2.69115916468826 -4.10859347036111 -4.375752345522908 -4.402205622185281 0.17098674400848446 -4.0379366957735225 -4.533731666864952 -3.8441587260906736 -4.253439926090837 -3.6109268481237398 -4.4217468213946685 -2.8886227172583245 -3.1495934852811804 -3.3914727942059044 -0.9940681081631088 -3.257913488954492 -1.1263289001330314 -3.5391552438055394 -3.2852954914584505 -3.7183693713276966 -3.399789843120639 -3.7165382873133708 -2.4181653014945517 -2.893178950992911 -3.4253482163432336 -0.7477869898590278 -3.197171750937714 -2.9497585705557934 -3.821435244413687 -3.7087159010830457 -0.6506455213219473 -3.572226749650757 -3.8446698494886475 -3.8230933978496964 -4.004210892961847 -4.145037635322998 -3.1419086527058875 -3.934590996293775 -4.085615823990278 -1.6125189680846908 -3.504622698362507 -4.31666610771434 -4.0511019787844935 -3.9571669171895367 -4.040643620554696 -4.22285287463504 -4.654870555632335 -3.3780090710087114 -4.146823020517462 -4.3882340242892806 -0.8313179044912655 -3.8578574102089966 -4.385086674406817 -4.554321977760278 -4.050391846928848 -1.0656015207581646 -2.7885970364962476 -2.661466460326584 -2.242328653181143 -3.785253610589362 -2.5564386641295997 -2.183465445557233 -3.662889704053695 -0.7863735546821157 -3.7814666738566323 -2.384584589245314 -4.70733862143804 -3.292134576033973 -2.7730261177347675 -3.8882441390387883 -3.8434286650402134 -3.3356057593630233 -3.4291128874069927 -2.5217059159415283 -0.5958429550507701 -3.1957587415228605 -3.9540795115181018 -4.003833456862912 -3.9246058553159364 -0.6571430625337831 -4.087099421600186 -4.3667039719316785 -4.327276855167053 -3.3043266073911797 -3.2971459536774996 -2.1398103020548906 3.2612560139803044 -2.983167602461148 -2.2919730240726883 -3.869022282489133 -2.4795730085147185 -3.482882839923714 -3.806964034170175 -3.7692342230684774 -3.7945152643292093 -2.0550233540802805 -3.695817984771228 1.2969550704254442 -3.743301729055286 -3.09809880247752 -3.495115537971579 -3.9837166369669887 1.6427916568792706 -3.443227422051167 -3.1250009299355606 -3.1780796953482446 -1.8218659847481837 -3.280374006643569 -0.57794377301465 -3.359920064767692 -1.973981398342531 -4.544357099263402 -2.6336655152696165 -2.259616214088254 -1.6626562631383028 -4.296376159996975 -2.8268777962943115 -2.434819578702926 -2.143152228421551 -0.009603149248920579 -2.35665527960118 -2.1096085100249335 -4.122967491210384 -3.5885524133865347 -0.28400666475809766 -2.6235238703736243 -3.4603416961706355 -2.8414223058233654 -3.5778348523371784 -0.31687559376527635 -3.3518774464529844 -1.9054037101541774 -5.115231608074552 -2.971197793032444 -1.5758113678829502 -2.8882976082304546 -3.8029213998866673 -2.3090103476522974 -2.8970082531606516 -1.8196720964494342 0.3231982416537291 -3.323204529538145 -1.5589863962453527 -3.268687284687427 -4.38743141422218 0.6550007769082209 -2.374585512678607 -3.164893109027603 -3.938202427856934 0.18382750716695165 -2.2990480711149726 -1.4132844588738687 -2.8368169365212124 -3.484804132904426 -3.7946996078813484 -3.418925910450576 -4.144244006244025 -3.0401956110739317 -2.423649351552268 -3.4968629587736517 0.07804741679590518 -3.8051231077070455 -2.6750178326216107 -2.9212315805350744 -3.703194682251073 -1.236735894167247 -3.59331592996966 -3.7199797601513347 -3.5859697124998187 0.322643855970145 -0.3058729501653861 0.14470383960573555 0.4570593665434655 1.6976254939507813 -1.3806071442108385 -0.1711064372973526 0.4604800539883866 -0.6894734164806514 1.994974460183517 0.6931471784024834 -0.2881626705609054 1.3212403768026342 -1.084718415951206 -0.6581496711417038 0.6931471784024834 0.8890408763568182 0.9695982473639707 1.2583814950286316 -2.3224797221793314 -3.8788883531886404 -2.154778237178854 -2.9401805508925554 -3.176082690633635 -4.584421922094466 -3.953174865331576 -2.633680692272376 -3.4103573798165385 0.7293056238136302 -2.607746349764474 -1.8707995179477483 -3.5879893977122443 -3.9750964459251925 0.7007995045810227 -3.996903078712186 -3.490124748210366 -3.225983645349538 -1.5095121668608007 -1.826791759406057 -3.6091272999252504 -2.734834463637582 -4.010196773422136 -2.92077368629728 -1.7566188567576817 -1.848925977446518 -0.43570345799349597 -2.423276927559371 -1.6525429167007453 -2.574207006418439 -3.751861555439231 0.2862620134905349 -2.871070492672102 -2.118275421175091 -3.2771019123054783 -3.172868638651358 -4.44933717463771 -3.9750386162644507 -4.137041396624437 -3.2723292895168 -1.9632198798906404 -2.9889701908547828 -0.6195447310568011 -3.047240806199907 -4.375587118227418 -2.8561215200035828 -4.236232322682825 1.4183846927838986 -2.774408333614794 -1.9787534132938205 -2.74849290633529 -3.247738246354385 -3.141978229387506 -2.8074537269493507 -2.9039964759275607 -2.632281850660806 -3.5462303811186624 0.7234724114521497 -2.4058169245605137 -2.394620012313902 -3.788834445472681 -3.7927803208740127 2.341688215880802 -3.604424799082297 -3.248023318138137 -2.7838011241879745 -1.1125849910613528 -3.17397514818596 -2.33178554653838 -4.208012394482068 -2.6340026808099797 0.07067086994168331 -3.910611121872977 -2.8331922329371766 -2.8037380005680514 -2.4285063140493928 1.6151298047192995 -3.0665491685113824 -3.3348599342692937 -4.741310845812251 -4.136443049971881 -2.9448649317615843 -4.209792233966532 -3.0068744485168177 0.9243763658305892 -3.4600348222066737 -1.8303704419125635 -2.276534403965219 -3.013564694164787 0.24558674912648673 -2.4580578081220583 -1.8667169324749446 -3.968598819189556 -2.819133773015836 -2.962187285070756 -3.2956250536284024 0.05631398916620257 -4.588081779602148 -3.749633988467932 -3.619626676426226 -3.8697860397299455 -0.1002410497450439 -4.1956907221630715 -4.35087004527035 -3.6919989104407294 -1.5731470879990503 -3.841983609092982 0.2510630611042097 -3.9923535862832416 -2.2046474820202757 -4.354308350340009 -3.2755351487090967 -0.13625946211375867 -1.8257464294796368 -2.791389546484588 -2.875449320807587 -1.9796123651349335 -0.5577806416587552 -3.5024880676276204 -3.72861466498381 -4.156379783350283 -4.402310586748965 -0.9733735251329286 -4.074740099480073 -3.277438090119592 -3.2002210404644305 0.6341414351601607 -3.4396697824034375 -3.4993877686520825 -3.6494825508610593 -4.640534270854015 0.8359385857067161 -2.652865171452752 -3.456909347680217 -3.7027093053850626 -0.048658269796516614 1.6999606874546593 -0.7403401963403888 -0.3176660522623687 0.6931471784024834 -0.23842651343509305 1.4538704522800734 0.9438809669512896 -3.065204034674416 -3.350020860443862 -4.105323214824305 1.0582823974609687 -3.566388701926169 -3.813542551552359 -2.8412005189787117 -1.2864586379968705 -4.200651790927714 2.3346447279479166 -2.4838808121621425 -2.3179872241297512 -4.754371904352038 -4.360886423255547 -0.7463457082506362 -4.175216517489084 -2.944793835137053 -4.511469961602542 -0.8192826140168505 -3.6118900491502783 -3.185331755412429 -3.5726964558312457 -0.2939309152044909 0.12027673925631265 1.0374757346332297 -1.7681700766270243 -3.1685413511047638 -3.568304294950008
probB -0.18488458176377415 -0.09602496641729195 -0.1308852274310297 0.1864651807441615 -0.2097713335361229 0.2481942566668189 0.33731776442666234 -0.055286083475792495 0.4968630658616349 -0.06599090266380345 -2.258939404313429 -0.21837619304302883 0.23820841962116732 -0.23896415996623052 0.336563874188593 0.10038710974689007 -0.16227878472807303 0.7212778250058344 -0.15187136247605132 0.3464836495138841 0.6932340687215907 -2.8032747186505853 0.10006313750255093 0.33067495896816823 -0.5614509021260684 0.04146845018346755 -3.030331174858025 -0.14380145406367947 -0.22941674559878358 -0.1790738375667314 -0.13201776156424735 0.4669895286403501 0.11511697748638723 -0.2708014973867658 0.2729611267572761 0.5305110061896419 0.2897444228529836 0.26217476164099457 -0.08701343374575365 -2.5718960581297927 -0.008059931596163175 0.04291840873147051 -0.11656898137486012 0.39283210708407884 0.15402306378682604 -0.16673308852882604 0.5140351174923268 0.2630496769018109 0.5511444260774021 0.9685858692588015 -2.951619051214166 0.0746017315411884 0.3416902273357263 -0.5933735556305804 0.13945337812630534 -2.3305688784781067 0.12334888489960781 -0.27116649768604734 0.5340398168226846 -0.1864451861690951 0.505844361315244 0.11200390212944043 0.5314493717319705 1.4182368879635683 -0.03147896107359699 0.35780442219679065 0.024054978629810507 -2.7032842109055966 0.0961968502578461 0.3640758508100445 0.1762774641232475 0.12557792398594939 0.8733545343112915 0.6469761472980807 0.7827219923594249 0.3192901007238975 0.46122161302261383 0.5411339147008831 -1.6431519839557363 0.3989093197804607 0.48430418780402634 -0.3318247704091081 0.06713996797061264 -2.122410078030128 0.017664601812933826 -0.10156216566485965 0.37342873399669196 0.8480506180613995 -0.29672080508238136 0.2566307818021945 0.6169960776128876 0.38422273361997744 0.14767707652680837 0.1301096704709502 -1.6736755947308164 0.444086286685341 0.32823403743479607 -0.15026175247939516 0.4248465635419344 0.16910422498118172 0.2701483423878615 0.36479851496790305 -0.15965566579484788 0.20541996128681678 0.8153335324216346 -3.290902349787158 0.1795537316877077 0.6979995682146118 -0.03433373228372103 0.27150261685243443 -3.4333274922349615 0.22207412332484083 -0.19504658713589415 -0.30812261021418547 -0.5542175631741713 0.1648478246059617 0.8496782668266812 -0.15020556258770293 0.03930041796577404 -0.10761153402805518 -2.3045426195142547 -0.26535091076662626 -0.22136082325524783 -0.19160320950528043 0.2408558978256226 0.1820241611214635 0.15921084779810094 0.07099785700638508 3.48728611242446E-4 -0.09605818096383796 0.21912414329075655 -2.573298306189238 -0.25069960664750934 -0.351868733559667 -0.5338074267047037 -0.31064077991159944 -2.682235082920685 -0.13230830802123103 -0.3033836984002403 -0.3954470756717939 0.5438850921224773 0.8209214198576897 0.03795805172008835 0.3565866661917208 0.4750618551206893 -1.5821691849045052 0.3492013848997342 0.8156639328461142 0.427114228299145 0.5440905130185606 0.7642247017177702 0.357047164707933 0.8203720940473809 0.19618413001120386 0.7409135805867897 0.9897120342043467 -2.3638097638555626 0.49736243980396616 0.9447056690110235 -0.4414129973794626 0.20584589613109297 -2.1153226285280358 -0.06668871082651819 0.08574957770732619 0.2629315710788045 0.41485280001932556 -0.272325471980771 -0.11846153308770979 -0.3975454726072418 -2.7807056623983892 -0.07786209170101836 -0.04291159289852923 -0.4353045875055897 -0.05818173279816598 -0.010577971099573515 -0.32497998200983114 0.24627664636613328 -0.0580543235051636 -0.31718076001989737 -0.11135451819590557 -2.9715334438538337 -0.14193397382215103 -0.25659994517435913 -0.9342956727765018 -0.3973542379913649 -2.916626088967925 -0.267205585619077 -0.5849642026042001 0.300900678888446 -0.19729761292904827 -0.0732017884591912 0.06704829619993613 -5.0617055560942354 -0.08170452455787448 0.1250181683126367 -0.6642262511707839 -0.12592809951053438 -0.13272962397607654 -0.49616956943439483 -0.0886994907340209 -0.9080091785955524 0.28447767349924336 -0.17009613049325248 -3.2192829586739613 -0.36865037415794355 0.02093864653081458 -0.2591964408010219 -0.37187413041830936 -3.5114715399725234 -0.2440833598573906 -0.12560217913401717 -0.37270050921875164 0.14105606576220112 -0.3229299297261686 -2.317165555137178 0.20875847324149063 -0.0010812466970969525 -0.3427268683436959 -0.1425480688133427 -0.1014846790691771 -0.055865780405494815 0.4387751701116252 0.20194837890064296 0.10930844816629642 -0.03218124360244798 -2.898638421201934 0.021242670733934287 -0.02700446106550914 -0.9925317461479743 0.10094383301258623 -2.6198652653550885 -0.31078360354389994 -0.11210780775943884 -0.07309619570280647 -0.2759722546029748 -2.552367757143633 0.006501788965425541 0.0472675432731674 -0.8075992712050937 -0.01448823417538689 -0.18917881841772097 -0.1201928495677285 0.4824862081213963 -0.0880611417518332 -0.04477970883781604 -0.337166711843479 -3.1850989755467185 -0.12188754275908481 -0.2534718333252359 -0.5928282403705112 0.2030542081358356 -3.5096526835500046 -0.14621766018027887 -0.07478002512626189 0.02321046815477435 -2.868143917068999 0.02901508793265175 -0.09698265069794314 -0.08035482007744076 0.6626482239448863 0.18660589485913132 0.33202704659894106 0.5140585198933669 -0.10533848418888944 0.2870933832968825 0.16330424950448622 -2.7674795206847547 0.062184203446581404 0.38729561440165033 0.05871352031086809 0.1938511917940802 -1.423091211311466 -0.0812728557436892 -0.06079074117908561 0.4676326095424765 2.719695058086393 2.4561342044534165 2.9120728476536963 2.899326592820015 4.0656090964558995 1.3226014060442302 2.8591051460755335 3.1030617256859236 2.684152213864715 4.251288596786777 2.391895380739567E-16 2.8237125986703693 3.5074479808015186 1.7907410716066734 2.4484635136375092 2.391895380739567E-16 3.7532534561835247 3.6032509369247427 3.727265773054665 -0.08206131103771463 -0.6996876656296427 0.1933913283008654 0.2467593094427414 0.27294478870435496 0.21511668545175877 -0.5300417986183202 0.22486075850534015 0.1615716599512047 -3.118132010882349 -0.3420705749558414 -0.08635252387489277 -0.4572561720150994 0.27231979406845336 -3.09560628552387 -0.3890417931942502 -0.15664852172772906 -0.09300594286028593 -0.12803497496345118 0.07570333109263719 0.163437117425433 0.010978410497640253 0.31638786194420027 0.07506250508183487 0.27987258629593254 -0.1162492389970568 -2.321424837106413 -0.09184867466546047 -0.011288951815242159 -0.5728135334388682 -0.19385703135467372 -3.0499934460727487 -0.25721514904632836 -0.12210188743790144 -0.07718024218425729 0.37532485967477425 0.3884937986486886 0.432273902276629 0.7336030167680052 0.3669070748908942 0.24826927860556178 0.472007364769808 -2.13545545782244 0.1553064969092691 0.6942232110012695 -0.20870486648683395 0.2929731090241141 -4.161537516575222 0.046728551219400075 -0.03786546762525211 0.22658938787814115 -0.05432713139933551 -0.07045257023200374 0.09855599893783212 -0.22579573970170122 0.18440911740086555 -0.12058623800191069 -3.150330684210217 0.11734202573130549 0.19624913848584802 -0.553375706557312 -0.3552584164874042 -4.660423185393343 -0.28618278782463236 -0.29685706214238566 -0.25482837111684964 0.09935857540018418 0.20985008911608088 0.04039610359787425 -0.29805779582201786 0.006046199306623924 -2.53231357091145 -0.18472119090682207 -0.0017371446466183035 -0.5135007902394711 0.1610079532770358 -3.9750309650710784 -0.30956616553393596 -0.34361093335224946 -0.29129436345523124 0.4970931831958361 -0.11038914664464428 0.2042972751168514 0.0021666803899084938 -3.6587128213310294 0.06719910168750333 -0.10824703730725423 -0.10983800583032026 -0.13975493553697277 -3.00986471282469 -0.1544705022197735 -0.12728352510769753 -0.23437035865142652 -0.06430360826155022 0.09828475197213452 -0.14791853565812202 -3.0873490644955157 -0.42217731711194356 -0.3350510152844993 -0.5880366768822668 -0.586412235782616 -2.9302962355255753 -0.3420827270452608 -0.7004673810752376 -0.14386463239969732 0.271306972650707 0.12220155418484573 -2.8934850162902603 0.5305280355810074 0.1330474292410443 -0.566247627381003 -0.0697089438233924 -2.5110856286878374 -0.12149674555155268 -0.3766450685637707 0.07525950057947356 -0.29224363121513014 -2.851874476199175 -0.11070666129346599 0.47679417012826186 -0.6624323651966869 7.643189827421863E-4 -2.423791248167257 0.0854065876358378 -0.3988139008026959 0.15877566069866697 -2.93287462788256 -0.3611939139869272 -0.2751637749230319 -0.5576226623658894 -0.43532659877923907 -3.1393299209730063 -0.19287076172943268 -0.5385086181711294 -0.6028382038527444 3.0657967224964016 3.9066150532575508 2.152001135213386 2.791929604038944 2.391895380739567E-16 2.6346052427434974 4.061342993158218 3.4251066044002125 0.08467118517282626 -0.3519381678009459 0.08351321689177511 -4.1539060286025205 0.010936171689554462 0.02044308650097494 0.024292185996305636 0.2143399679568106 0.046627805314727586 -4.483086870338174 -0.14392223457911382 -0.30768784979537644 0.13925449506190224 0.5271898258494443 -2.145739366831468 0.639914551264626 0.36385715117246564 0.47561579727981235 -2.2286761323399134 -0.13372952838163268 -0.3365928777331308 -0.41579827224797883 2.577925037065318 2.767752497510248 3.5136815388261526 -0.11741091363962053 -0.212813936084469 0.6010400788224672
nr_sv 45 45 52 43 44 40 58 12 30 29 24 1 17 26 26 19 19 26 34 23 51 17 1 37 16 30 36 1 29 23 20
SV
0.0606923678788768 0.0 0.001805654757344179 0.00861136258977249 0.020826638325368473 0.0 0.0 0.0 0.0 0.0011285922484151382 0.0 0.0 0.0 0.0 0.010852286290274227 0.0 0.0 0.004637194047434578 0.006437913124742945 0.024234294429519746 0.007053582612563928 0.003295401799003809 0.018668790965999143 0.006359021979427876 0.0 0.0 0.0018243530126165208 0.0 0.0 0.010159627803083623 0:0.01 1:0.01 2:0.99 3:0.99 4:0.99 5:0.99 6:0.01 7:0.01 8:0.01 9:0.01 10:0.01 11:0.01 12:0.01 13:0.01 14:0.01 15:0.01 16:0.01 1000:0.99 1001:0.99 1002:0.99 1003:0.01 1004:0.99 1005:0.99 1006:0.99 1007:0.99 1008:0.01 1009:0.01 1010:0.01 1011:0.01 1012:0.01 1013:0.01 1014:0.01 1015:0.01 1016:0.01 2000:0.99 2001:0.99 2002:0.01 2003:0.01 2004:0.01 2005:0.01 2006:0.01 2007:0.99 2008:0.99 2009:0.01 2010:0.01 2011:0.01 2012:0.01 2013:0.01 2014:0.01 2015:0.01 2016:0.01 3000:0.01 3001:0.99 3002:0.99 3003:0.01 3004:0.01 3005:0.01 3006:0.01 3007:0.01 3008:0.01 3009:0.99 3010:0.99 3011:0.01 3012:0.01 3013:0.01 3014:0.01 3015:0.01 3016:0.01 4000:0.01 4001:0.99 4002:0.01 4003:0.01 4004:0.01 4005:0.01 4006:0.01 4007:0.01 4008:0.01 4009:0.99 4010:0.99 4011:0.01 4012:0.01 4013:0.01 4014:0.01 4015:0.01 4016:0.01 5000:0.01 5001:0.01 5002:0.99 5003:0.01 5004:0.01 5005:0.01 5006:0.01 5007:0.01 5008:0.01 5009:0.01 5010:0.99 5011:0.99 5012:0.01 5013:0.01 5014:0.01 5015:0.01 5016:0.01 6000:0.01 6001:0.01 6002:0.01 6003:0.01 6004:0.01 6005:0.01 6006:0.01 6007:0.01 6008:0.01 6009:0.01 6010:0.99 6011:0.01 6012:0.01 6013:0.01 6014:0.01 6015:0.01 6016:0.01 7000:0.01 7001:0.01 7002:0.01 7003:0.01 7004:0.01 7005:0.01 7006:0.01 7007:0.01 7008:0.01 7009:0.01 7010:0.99 7011:0.99 7012:0.01 7013:0.01 7014:0.01 7015:0.01 7016:0.01 8000:0.01 8001:0.01 8002:0.01 8003:0.01 8004:0.01 8005:0.01 8006:0.01 8007:0.01 8008:0.01 8009:0.01 8010:0.01 8011:0.99 8012:0.99 8013:0.01 8014:0.01 8015:0.01 8016:0.01 9000:0.01 9001:0.01 9002:0.01 9003:0.01 9004:0.01 9005:0.01 9006:0.01 9007:0.01 9008:0.01 9009:0.01 9010:0.99 9011:0.99 9012:0.01 9013:0.01 9014:0.01 9015:0.01 9016:0.01 10000:0.01 10001:0.01 10002:0.01 10003:0.01 10004:0.01 10005:0.01 10006:0.01 10007:0.01 10008:0.01 10009:0.01 10010:0.99 10011:0.01 10012:0.01 10013:0.01 10014:0.01 10015:0.01 10016:0.01 11000:0.01 11001:0.01 11002:0.01 11003:0.01 11004:0.01 11005:0.01 11006:0.01 11007:0.01 11008:0.01 11009:0.99 11010:0.99 11011:0.01 11012:0.01 11013:0.01 11014:0.01 11015:0.01 11016:0.01 12000:0.01 12001:0.01 12002:0.01 12003:0.01 12004:0.01 12005:0.01 12006:0.01 12007:0.01 12008:0.01 12009:0.99 12010:0.99 12011:0.01 12012:0.99 12013:0.01 12014:0.01 12015:0.99 12016:0.99 13000:0.01 13001:0.01 13002:0.01 13003:0.01 13004:0.01 13005:0.01 13006:0.01 13007:0.01 13008:0.99 13009:0.01 13010:0.01 13011:0.99 13012:0.99 13013:0.99 13014:0.99 13015:0.99 13016:0.01 14000:0.01 14001:0.01 14002:0.01 14003:0.01 14004:0.01 14005:0.01 14006:0.01 14007:0.99 14008:0.99 14009:0.99 14010:0.99 14011:0.99 14012:0.99 14013:0.01 14014:0.01 14015:0.01 14016:0.01 
0.00989779087169593 0.00937144422038388 0.0 0.0 0.005104907748423846 0.012685382545991218 0.0010471807826736448 0.004551894524594679 0.0010303944835544838 0.012612289570078334 0.0 0.006667911149431429 0.021540640182374327 0.014251810513741718 0.009212744690433749 0.006670481310409786 0.009664649196137753 0.0 0.0 0.0 0.0 0.0 0.011171482794454912 0.021906738295689027 0.00535218398408284 0.027970492469433166 0.0 0.025362754030687964 0.0439869271110342 0.014146199816197469 0:0.01 1:0.01 2:0.01 3:0.99 4:0.01 5:0.01 6:0.01 7:0.01 8:0.01 9:0.01 10:0.01 11:0.01 1000:0.01 1001:0.01 1002:0.99 1003:0.99 1004:0.01 1005:0.01 1006:0.01 1007:0.01 1008:0.01 1009:0.01 1010:0.01 1011:0.01 2000:0.01 2001:0.99 2002:0.99 2003:0.99 2004:0.99 2005:0.99 2006:0.99 2007:0.01 2008:0.01 2009:0.01 2010:0.01 2011:0.01 3000:0.99 3001:0.99 3002:0.01 3003:0.01 3004:0.01 3005:0.01 3006:0.99 3007:0.99 3008:0.01 3009:0.01 3010:0.01 3011:0.01 4000:0.99 4001:0.99 4002:0.01 4003:0.01 4004:0.01 4005:0.01 4006:0.01 4007:0.01 4008:0.99 4009:0.01 4010:0.01 4011:0.01 5000:0.99 5001:0.01 5002:0.01 5003:0.01 5004:0.01 5005:0.01 5006:0.01 5007:0.01 5008:0.99 5009:0.01 5010:0.01 5011:0.01 6000:0.01 6001:0.01 6002:0.01 6003:0.01 6004:0.01 6005:0.01 6006:0.01 6007:0.01 6008:0.01 6009:0.99 6010:0.01 6011:0.01 7000:0.01 7001:0.01 7002:0.01 7003:0.01 7004:0.01 7005:0.01 7006:0.01 7007:0.01 7008:0.01 7009:0.99 7010:0.99 7011:0.01 8000:0.01 8001:0.01 8002:0.01 8003:0.01 8004:0.01 8005:0.01 8006:0.01 8007:0.01 8008:0.99 8009:0.99 8010:0.99 8011:0.01 9000:0.01 9001:0.01 9002:0.01 9003:0.01 9004:0.01 9005:0.01 9006:0.01 9007:0.01 9008:0.99 9009:0.99 9010:0.01 9011:0.01 10000:0.01 10001:0.01 10002:0.01 10003:0.01 10004:0.01 10005:0.01 10006:0.01 10007:0.99 10008:0.99 10009:0.01 10010:0.01 10011:0.01 11000:0.01 11001:0.01 11002:0.01 11003:0.01 11004:0.01 11005:0.01 11006:0.01 11007:0.99 11008:0.99 11009:0.01 11010:0.01 11011:0.01 12000:0.01 12001:0.01 12002:0.01 12003:0.01 12004:0.01 12005:0.99 12006:0.99 12007:0.01 12008:0.01 12009:0.01 12010:0.01 12011:0.01 13000:0.01 13001:0.01 13002:0.01 13003:0.01 13004:0.99 13005:0.99 13006:0.01 13007:0.01 13008:0.01 13009:0.01 13010:0.99 13011:0.99 14000:0.01 14001:0.01 14002:0.01 14003:0.99 14004:0.99 14005:0.99 14006:0.99 14007:0.99 14008:0.99 14009:0.99 14010:0.99 14011:0.99 
0.0 0.0 0.013738539950695789 0.015962408376700498 0.010438949936515344 0.01127105173498767 0.0 0.0011477732754028589 0.004492882990307918 0.014584406874939653 0.0 0.0 0.005349722031013041 7.49385919933234E-4 0.020621927176230116 0.0 0.0 6.466788682463508E-4 0.0023006283259170614 0.015025917286854398 0.0 0.0035108561463346516 0.016474769154298314 0.0 8.304227442139154E-4 0.0 0.0 0.0 0.0 0.032788305974649185 0:0.01 1:0.01 2:0.01 3:0.99 4:0.99 5:0.99 6:0.99 7:0.99 8:0.99 9:0.01 10:0.01 11:0.01 12:0.01 13:0.01 14:0.01 15:0.01 16:0.01 17:0.01 18:0.01 19:0.01 1000:0.01 1001:0.01 1002:0.99 1003:0.99 1004:0.99 1005:0.01 1006:0.99 1007:0.99 1008:0.99 1009:0.99 1010:0.01 1011:0.01 1012:0.01 1013:0.01 1014:0.01 1015:0.01 1016:0.01 1017:0.01 1018:0.01 1019:0.01 2000:0.01 2001:0.99 2002:0.99 2003:0.01 2004:0.01 2005:0.01 2006:0.01 2007:0.01 2008:0.99 2009:0.99 2010:0.99 2011:0.01 2012:0.01 2013:0.01 2014:0.01 2015:0.01 2016:0.01 2017:0.01 2018:0.01 2019:0.01 3000:0.99 3001:0.99 3002:0.01 3003:0.01 3004:0.01 3005:0.01 3006:0.01 3007:0.01 3008:0.01 3009:0.99 3010:0.99 3011:0.01 3012:0.01 3013:0.01 3014:0.01 3015:0.01 3016:0.01 3017:0.01 3018:0.01 3019:0.01 4000:0.01 4001:0.99 4002:0.99 4003:0.01 4004:0.01 4005:0.01 4006:0.01 4007:0.01 4008:0.01 4009:0.01 4010:0.99 4011:0.99 4012:0.01 4013:0.01 4014:0.01 4015:0.01 4016:0.01 4017:0.01 4018:0.01 4019:0.01 5000:0.01 5001:0.99 5002:0.99 5003:0.99 5004:0.01 5005:0.01 5006:0.01 5007:0.01 5008:0.01 5009:0.01 5010:0.01 5011:0.99 5012:0.99 5013:0.01 5014:0.01 5015:0.01 5016:0.01 5017:0.01 5018:0.01 5019:0.01 6000:0.01 6001:0.01 6002:0.99 6003:0.01 6004:0.01 6005:0.01 6006:0.01 6007:0.01 6008:0.01 6009:0.01 6010:0.01 6011:0.99 6012:0.99 6013:0.01 6014:0.01 6015:0.01 6016:0.01 6017:0.01 6018:0.01 6019:0.01 7000:0.01 7001:0.01 7002:0.01 7003:0.01 7004:0.01 7005:0.01 7006:0.01 7007:0.01 7008:0.01 7009:0.01 7010:0.01 7011:0.01 7012:0.99 7013:0.99 7014:0.01 7015:0.01 7016:0.01 7017:0.01 7018:0.01 7019:0.01 8000:0.01 8001:0.01 8002:0.01 8003:0.01 8004:0.01 8005:0.01 8006:0.01 8007:0.01 8008:0.01 8009:0.01 8010:0.01 8011:0.99 8012:0.99 8013:0.01 8014:0.01 8015:0.01 8016:0.01 8017:0.01 8018:0.01 8019:0.01 9000:0.01 9001:0.01 9002:0.01 9003:0.01 9004:0.01 9005:0.01 9006:0.01 9007:0.01 9008:0.01 9009:0.01 9010:0.01 9011:0.01 9012:0.99 9013:0.99 9014:0.01 9015:0.01 9016:0.01 9017:0.01 9018:0.01 9019:0.01 10000:0.01 10001:0.01 10002:0.01 10003:0.01 10004:0.01 10005:0.01 10006:0.01 10007:0.01 10008:0.01 10009:0.01 10010:0.01 10011:0.01 10012:0.99 10013:0.99 10014:0.01 10015:0.01 10016:0.01 10017:0.01 10018:0.01 10019:0.01 11000:0.01 11001:0.01 11002:0.01 11003:0.01 11004:0.01 11005:0.01 11006:0.01 11007:0.01 11008:0.01 11009:0.01 11010:0.01 11011:0.01 11012:0.99 11013:0.99 11014:0.01 11015:0.01 11016:0.01 11017:0.01 11018:0.01 11019:0.01 12000:0.01 12001:0.01 12002:0.01 12003:0.01 12004:0.01 12005:0.01 12006:0.01 12007:0.01 12008:0.01 12009:0.01 12010:0.01 12011:0.99 12012:0.99 12013:0.01 12014:0.01 12015:0.01 12016:0.01 12017:0.01 12018:0.01 12019:0.01 13000:0.01 13001:0.01 13002:0.01 13003:0.01 13004:0.01 13005:0.01 13006:0.01 13007:0.01 13008:0.01 13009:0.01 13010:0.99 13011:0.99 13012:0.01 13013:0.01 13014:0.01 13015:0.01 13016:0.01 13017:0.01 13018:0.99 13019:0.99 14000:0.01 14001:0.01 14002:0.01 14003:0.01 14004:0.01 14005:0.01 14006:0.01 14007:0.01 14008:0.01 14009:0.01 14010:0.99 14011:0.99 14012:0.99 14013:0.01 14014:0.99 14015:0.01 14016:0.99 14017:0.99 14018:0.99 14019:0.99 15000:0.01 15001:0.01 15002:0.01 15003:0.01 15004:0.01 15005:0.01 15006:0.01 15007:0.01 15008:0.01 15009:0.99 15010:0.99 15011:0.01 15012:0.99 15013:0.99 15014:0.99 15015:0.99 15016:0.99 15017:0.99 15018:0.01 15019:0.01 16000:0.01 16001:0.01 16002:0.01 16003:0.01 16004:0.01 16005:0.01 16006:0.01 16007:0.01 16008:0.99 16009:0.99 16010:0.99 16011:0.99 16012:0.99 16013:0.99 16014:0.99 16015:0.01 16016:0.01 16017:0.01 16018:0.01 16019:0.01 
0.023887642909079573 0.004826328999541322 0.018401730563050587 0.019095606882797943 0.021341015350546323 0.022826311917063496 0.018848953078892706 0.008801242992926336 0.05032106525631622 0.04011921887981409 0.001315631371596108 0.007365784639900974 0.0 0.0 0.012215754213562817 0.0 0.0 0.0 0.0 0.025923610868460945 0.004647879819410945 0.0 0.005964523785511707 0.0 0.0 0.0 0.0 0.0 0.0 0.0 0:0.01 1:0.99 2:0.99 3:0.99 4:0.99 5:0.01 6:0.01 7:0.01 8:0.01 9:0.01 10:0.01 11:0.01 12:0.01 13:0.01 1000:0.99 1001:0.99 1002:0.99 1003:0.99 1004:0.99 1005:0.99 1006:0.99 1007:0.01 1008:0.01 1009:0.01 1010:0.01 1011:0.01 1012:0.01 1013:0.01 2000:0.99 2001:0.99 2002:0.01 2003:0.01 2004:0.01 2005:0.01 2006:0.99 2007:0.99 2008:0.01 2009:0.01 2010:0.01 2011:0.01 2012:0.01 2013:0.01 3000:0.99 3001:0.99 3002:0.01 3003:0.01 3004:0.01 3005:0.01 3006:0.01 3007:0.99 3008:0.99 3009:0.01 3010:0.01 3011:0.01 3012:0.01 3013:0.01 4000:0.99 4001:0.99 4002:0.01 4003:0.01 4004:0.01 4005:0.01 4006:0.01 4007:0.01 4008:0.99 4009:0.01 4010:0.01 4011:0.01 4012:0.01 4013:0.01 5000:0.01 5001:0.99 5002:0.99 5003:0.01 5004:0.01 5005:0.01 5006:0.01 5007:0.01 5008:0.99 5009:0.99 5010:0.01 5011:0.01 5012:0.01 5013:0.01 6000:0.01 6001:0.01 6002:0.01 6003:0.01 6004:0.01 6005:0.01 6006:0.01 6007:0.01 6008:0.01 6009:0.99 6010:0.99 6011:0.01 6012:0.01 6013:0.01 7000:0.01 7001:0.01 7002:0.01 7003:0.01 7004:0.01 7005:0.01 7006:0.01 7007:0.01 7008:0.01 7009:0.99 7010:0.01 7011:0.01 7012:0.01 7013:0.01 8000:0.01 8001:0.01 8002:0.01 8003:0.01 8004:0.01 8005:0.01 8006:0.01 8007:0.01 8008:0.99 8009:0.99 8010:0.01 8011:0.01 8012:0.01 8013:0.01 9000:0.01 9001:0.01 9002:0.01 9003:0.01 9004:0.01 9005:0.01 9006:0.01 9007:0.99 9008:0.99 9009:0.01 9010:0.01 9011:0.01 9012:0.01 9013:0.01 10000:0.01 10001:0.01 10002:0.01 10003:0.01 10004:0.01 10005:0.01 10006:0.01 10007:0.01 10008:0.99 10009:0.99 10010:0.01 10011:0.01 10012:0.01 10013:0.99 11000:0.01 11001:0.01 11002:0.01 11003:0.01 11004:0.01 11005:0.01 11006:0.01 11007:0.99 11008:0.01 11009:0.99 11010:0.99 11011:0.99 11012:0.99 11013:0.01 12000:0.01 12001:0.01 12002:0.01 12003:0.01 12004:0.01 12005:0.01 12006:0.99 12007:0.99 12008:0.99 12009:0.99 12010:0.99 12011:0.01 12012:0.01 12013:0.01 
0.0 0.0 0.017197907093086415 0.015117307361303161 0.0 0.0 0.004285263529871339 0.0 0.01975065281842479 0.009689932901838462 0.0 0.0 0.0018479882694709578 0.006186327755974931 0.01270935655236759 0.0 0.0 0.0 0.0019013574033982185 0.015614443130839309 0.0 0.0 0.0 0.0 0.0 0.0 0.0 0.0 0.0 0.0 0:0.01 1:0.01 2:0.01 3:0.01 4:0.99 5:0.99 6:0.99 7:0.99 8:0.01 9:0.01 10:0.01 11:0.01 12:0.01 13:0.01 1000:0.01 1001:0.01 1002:0.99 1003:0.99 1004:0.99 1005:0.99 1006:0.99 1007:0.99 1008:0.99 1009:0.99 1010:0.01 1011:0.01 1012:0.01 1013:0.01 2000:0.01 2001:0.99 2002:0.99 2003:0.99 2004:0.99 2005:0.01 2006:0.01 2007:0.01 2008:0.01 2009:0.01 2010:0.99 2011:0.99 2012:0.01 2013:0.01 3000:0.01 3001:0.01 3002:0.99 3003:0.99 3004:0.01 3005:0.01 3006:0.01 3007:0.01 3008:0.01 3009:0.01 3010:0.01 3011:0.99 3012:0.99 3013:0.01 4000:0.01 4001:0.01 4002:0.01 4003:0.01 4004:0.01 4005:0.01 4006:0.01 4007:0.01 4008:0.01 4009:0.01 4010:0.01 4011:0.01 4012:0.99 4013:0.99 5000:0.01 5001:0.01 5002:0.01 5003:0.01 5004:0.01 5005:0.01 5006:0.01 5007:0.01 5008:0.01 5009:0.01 5010:0.01 5011:0.01 5012:0.01 5013:0.99 6000:0.01 6001:0.01 6002:0.01 6003:0.01 6004:0.01 6005:0.01 6006:0.01 6007:0.01 6008:0.01 6009:0.01 6010:0.01 6011:0.01 6012:0.01 6013:0.99 7000:0.01 7001:0.01 7002:0.01 7003:0.01 7004:0.01 7005:0.01 7006:0.01 7007:0.01 7008:0.01 7009:0.01 7010:0.01 7011:0.01 7012:0.99 7013:0.99 8000:0.01 8001:0.01 8002:0.01 8003:0.01 8004:0.01 8005:0.01 8006:0.01 8007:0.01 8008:0.01 8009:0.01 8010:0.01 8011:0.01 8012:0.99 8013:0.99 9000:0.01 9001:0.01 9002:0.01 9003:0.01 9004:0.01 9005:0.01 9006:0.01 9007:0.01 9008:0.01 9009:0.01 9010:0.01 9011:0.99 9012:0.99 9013:0.99 10000:0.01 10001:0.01 10002:0.01 10003:0.01 10004:0.99 10005:0.01 10006:0.01 10007:0.99 10008:0.99 10009:0.99 10010:0.99 10011:0.99 10012:0.01 10013:0.01 11000:0.01 11001:0.01 11002:0.01 11003:0.01 11004:0.01 11005:0.99 11006:0.99 11007:0.99 11008:0.99 11009:0.01 11010:0.01 11011:0.01 11012:0.01 11013:0.01 12000:0.01 12001:0.01 12002:0.99 12003:0.99 12004:0.99 12005:0.99 12006:0.01 12007:0.01 12008:0.01 12009:0.01 12010:0.01 12011:0.01 12012:0.01 12013:0.01 13000:0.01 13001:0.99 13002:0.99 13003:0.99 13004:0.01 13005:0.01 13006:0.01 13007:0.01 13008:0.01 13009:0.01 13010:0.01 13011:0.01 13012:0.01 13013:0.01 14000:0.99 14001:0.99 14002:0.99 14003:0.99 14004:0.99 14005:0.01 14006:0.01 14007:0.01 14008:0.01 14009:0.01 14010:0.01 14011:0.01 14012:0.01 14013:0.01 15000:0.01 15001:0.01 15002:0.99 15003:0.99 15004:0.99 15005:0.99 15006:0.99 15007:0.01 15008:0.01 15009:0.01 15010:0.01 15011:0.01 15012:0.01 15013:0.01 16000:0.01 16001:0.01 16002:0.01 16003:0.01 16004:0.01 16005:0.99 16006:0.99 16007:0.99 16008:0.99 16009:0.99 16010:0.01 16011:0.01 16012:0.01 16013:0.01 
0.0 0.0 0.0 0.0 0.0 0.005286325772420481 0.02014042827476619 0.0 0.0 0.0 0.0 0.0 0.0 0.0 0.0 0.0 0.0 0.0 0.0 0.0 0.003938715235635057 0.0 0.0 0.0 0.0 0.0 0.0023549375211230107 0.0 0.0 0.0 0:0.01 1:0.99 2:0.99 3:0.99 4:0.99 5:0.01 6:0.01 7:0.01 8:0.01 9:0.01 10:0.01 11:0.01 12:0.01 1000:0.99 1001:0.99 1002:0.99 1003:0.99 1004:0.99 1005:0.99 1006:0.99 1007:0.99 1008:0.01 1009:0.01 1010:0.01 1011:0.01 1012:0.01 2000:0.99 2001:0.99 2002:0.99 2003:0.01 2004:0.01 2005:0.01 2006:0.01 2007:0.99 2008:0.99 2009:0.01 2010:0.01 2011:0.01 2012:0.01 3000:0.99 3001:0.99 3002:0.01 3003:0.01 3004:0.01 3005:0.01 3006:0.01 3007:0.01 3008:0.99 3009:0.99 3010:0.01 3011:0.01 3012:0.01 4000:0.01 4001:0.99 4002:0.01 4003:0.01 4004:0.01 4005:0.01 4006:0.01 4007:0.01 4008:0.01 4009:0.99 4010:0.99 4011:0.01 4012:0.01 5000:0.01 5001:0.01 5002:0.01 5003:0.01 5004:0.01 5005:0.01 5006:0.01 5007:0.01 5008:0.01 5009:0.99 5010:0.99 5011:0.01 5012:0.01 6000:0.01 6001:0.01 6002:0.01 6003:0.01 6004:0.01 6005:0.01 6006:0.01 6007:0.01 6008:0.01 6009:0.01 6010:0.99 6011:0.99 6012:0.01 7000:0.01 7001:0.01 7002:0.01 7003:0.01 7004:0.01 7005:0.01 7006:0.01 7007:0.01 7008:0.01 7009:0.01 7010:0.99 7011:0.99 7012:0.01 8000:0.01 8001:0.01 8002:0.01 8003:0.01 8004:0.01 8005:0.01 8006:0.01 8007:0.01 8008:0.01 8009:0.99 8010:0.99 8011:0.99 8012:0.01 9000:0.01 9001:0.01 9002:0.01 9003:0.01 9004:0.01 9005:0.01 9006:0.01 9007:0.01 9008:0.99 9009:0.99 9010:0.99 9011:0.01 9012:0.01 10000:0.01 10001:0.01 10002:0.01 10003:0.01 10004:0.01 10005:0.01 10006:0.01 10007:0.99 10008:0.99 10009:0.99 10010:0.01 10011:0.01 10012:0.01 11000:0.01 11001:0.01 11002:0.01 11003:0.01 11004:0.01 11005:0.01 11006:0.01 11007:0.99 11008:0.99 11009:0.99 11010:0.01 11011:0.01 11012:0.01 12000:0.01 12001:0.01 12002:0.01 12003:0.01 12004:0.01 12005:0.99 12006:0.99 12007:0.01 12008:0.01 12009:0.01 12010:0.01 12011:0.01 12012:0.01 13000:0.01 13001:0.01 13002:0.01 13003:0.01 13004:0.99 13005:0.99 13006:0.01 13007:0.01 13008:0.01 13009:0.01 13010:0.01 13011:0.01 13012:0.01 14000:0.01 14001:0.01 14002:0.01 14003:0.99 14004:0.99 14005:0.99 14006:0.99 14007:0.99 14008:0.99 14009:0.99 14010:0.99 14011:0.99 14012:0.99 
0.034279325525994976 0.02086497953301325 0.016145087655369397 0.008641837808644694 0.05046329533449954 0.007978800489500958 0.001796621387879756 0.017351327415474932 0.0 0.018746428474798585 5.08515260466601E-4 0.004860842259581311 0.007207667752661949 4.3736175301087993E-4 0.016814843897344056 0.0077803061921261655 0.007198884371057113 0.012391904490728996 0.025732652785090664 0.0 0.0 0.0 0.0 2.628080416721784E-4 6.085175579582738E-4 0.00989478703910008 0.0024829706384251454 0.020521486901423303 0.0 0.012936450483993478 0:0.01 1:0.01 2:0.99 3:0.99 4:0.01 5:0.01 6:0.01 7:0.01 8:0.01 9:0.01 10:0.01 11:0.01 12:0.01 13:0.01 14:0.01 1000:0.01 1001:0.01 1002:0.99 1003:0.99 1004:0.01 1005:0.01 1006:0.01 1007:0.01 1008:0.01 1009:0.01 1010:0.01 1011:0.01 1012:0.01 1013:0.01 1014:0.01 2000:0.01 2001:0.99 2002:0.99 2003:0.99 2004:0.99 2005:0.99 2006:0.99 2007:0.01 2008:0.01 2009:0.01 2010:0.01 2011:0.01 2012:0.01 2013:0.01 2014:0.01 3000:0.01 3001:0.99 3002:0.01 3003:0.01 3004:0.01 3005:0.01 3006:0.01 3007:0.99 3008:0.01 3009:0.01 3010:0.01 3011:0.01 3012:0.01 3013:0.01 3014:0.01 4000:0.99 4001:0.01 4002:0.01 4003:0.01 4004:0.01 4005:0.01 4006:0.01 4007:0.99 4008:0.99 4009:0.01 4010:0.01 4011:0.01 4012:0.01 4013:0.01 4014:0.01 5000:0.01 5001:0.99 5002:0.01 5003:0.01 5004:0.01 5005:0.01 5006:0.01 5007:0.01 5008:0.99 5009:0.99 5010:0.01 5011:0.01 5012:0.01 5013:0.01 5014:0.01 6000:0.01 6001:0.99 6002:0.01 6003:0.01 6004:0.01 6005:0.01 6006:0.01 6007:0.01 6008:0.99 6009:0.99 6010:0.01 6011:0.01 6012:0.01 6013:0.01 6014:0.01 7000:0.99 7001:0.01 7002:0.01 7003:0.01 7004:0.01 7005:0.01 7006:0.01 7007:0.01 7008:0.01 7009:0.99 7010:0.99 7011:0.01 7012:0.01 7013:0.01 7014:0.01 8000:0.01 8001:0.01 8002:0.01 8003:0.01 8004:0.01 8005:0.01 8006:0.01 8007:0.01 8008:0.01 8009:0.01 8010:0.99 8011:0.01 8012:0.01 8013:0.01 8014:0.01 9000:0.01 9001:0.01 9002:0.01 9003:0.01 9004:0.01 9005:0.01 9006:0.01 9007:0.01 9008:0.01 9009:0.99 9010:0.99 9011:0.01 9012:0.01 9013:0.01 9014:0.01 10000:0.01 10001:0.01 10002:0.01 10003:0.01 10004:0.01 10005:0.01 10006:0.01 10007:0.01 10008:0.01 10009:0.99 10010:0.01 10011:0.01 10012:0.01 10013:0.01 10014:0.01 11000:0.01 11001:0.01 11002:0.01 11003:0.01 11004:0.01 11005:0.01 11006:0.01 11007:0.01 11008:0.99 11009:0.99 11010:0.01 11011:0.01 11012:0.01 11013:0.01 11014:0.99 12000:0.01 12001:0.01 12002:0.01 12003:0.01 12004:0.01 12005:0.01 12006:0.01 12007:0.01 12008:0.01 12009:0.99 12010:0.01 12011:0.01 12012:0.01 12013:0.99 12014:0.99 13000:0.01 13001:0.01 13002:0.01 13003:0.01 13004:0.01 13005:0.01 13006:0.01 13007:0.99 13008:0.99 13009:0.01 13010:0.99 13011:0.99 13012:0.99 13013:0.01 13014:0.01 14000:0.01 14001:0.01 14002:0.01 14003:0.01 14004:0.01 14005:0.01 14006:0.01 14007:0.99 14008:0.99 14009:0.99 14010:0.99 14011:0.01 14012:0.01 14013:0.01 14014:0.01 
0.029265616594307733 0.0 0.0 6.980525235010824E-4 0.0 0.01277160335398955 4.926704567300747E-4 0.02289780818827888 0.0 0.0 0.0 0.0 0.0 0.0 0.018127091126421992 0.0 0.0 0.002044436158594276 0.0 0.030840273213134976 0.005628953920131311 8.265598526284296E-4 0.0 0.0 0.0 0.02067894264352094 0.0 0.0 0.0 0.0 0:0.01 1:0.01 2:0.01 3:0.01 4:0.99 5:0.99 6:0.01 7:0.01 8:0.01 9:0.01 10:0.01 11:0.01 12:0.01 13:0.01 14:0.01 15:0.01 16:0.01 17:0.01 1000:0.01 1001:0.99 1002:0.99 1003:0.99 1004:0.99 1005:0.99 1006:0.99 1007:0.99 1008:0.01 1009:0.01 1010:0.01 1011:0.01 1012:0.01 1013:0.01 1014:0.01 1015:0.01 1016:0.01 1017:0.01 2000:0.99 2001:0.99 2002:0.99 2003:0.01 2004:0.01 2005:0.01 2006:0.99 2007:0.99 2008:0.99 2009:0.01 2010:0.01 2011:0.01 2012:0.01 2013:0.01 2014:0.01 2015:0.01 2016:0.01 2017:0.01 3000:0.01 3001:0.99 3002:0.99 3003:0.01 3004:0.01 3005:0.01 3006:0.01 3007:0.01 3008:0.99 3009:0.99 3010:0.99 3011:0.01 3012:0.01 3013:0.01 3014:0.01 3015:0.01 3016:0.01 3017:0.01 4000:0.01 4001:0.99 4002:0.99 4003:0.01 4004:0.01 4005:0.01 4006:0.01 4007:0.01 4008:0.01 4009:0.01 4010:0.99 4011:0.99 4012:0.01 4013:0.01 4014:0.01 4015:0.01 4016:0.01 4017:0.01 5000:0.01 5001:0.99 5002:0.99 5003:0.01 5004:0.01 5005:0.01 5006:0.01 5007:0.01 5008:0.01 5009:0.01 5010:0.99 5011:0.99 5012:0.01 5013:0.01 5014:0.01 5015:0.01 5016:0.01 5017:0.01 6000:0.01 6001:0.01 6002:0.99 6003:0.99 6004:0.01 6005:0.01 6006:0.01 6007:0.01 6008:0.01 6009:0.01 6010:0.01 6011:0.99 6012:0.99 6013:0.01 6014:0.01 6015:0.01 6016:0.01 6017:0.01 7000:0.01 7001:0.01 7002:0.01 7003:0.01 7004:0.01 7005:0.01 7006:0.01 7007:0.01 7008:0.01 7009:0.01 7010:0.99 7011:0.99 7012:0.01 7013:0.01 7014:0.01 7015:0.01 7016:0.01 7017:0.01 8000:0.01 8001:0.01 8002:0.01 8003:0.01 8004:0.01 8005:0.01 8006:0.01 8007:0.01 8008:0.01 8009:0.01 8010:0.01 8011:0.99 8012:0.99 8013:0.01 8014:0.01 8015:0.01 8016:0.01 8017:0.01 9000:0.01 9001:0.01 9002:0.01 9003:0.01 9004:0.01 9005:0.01 9006:0.01 9007:0.01 9008:0.01 9009:0.01 9010:0.01 9011:0.99 9012:0.99 9013:0.01 9014:0.01 9015:0.01 9016:0.01 9017:0.01 10000:0.01 10001:0.01 10002:0.01 10003:0.01 10004:0.01 10005:0.01 10006:0.01 10007:0.01 10008:0.01 10009:0.01 10010:0.01 10011:0.99 10012:0.99 10013:0.01 10014:0.01 10015:0.01 10016:0.01 10017:0.01 11000:0.01 11001:0.01 11002:0.01 11003:0.01 11004:0.01 11005:0.01 11006:0.01 11007:0.01 11008:0.01 11009:0.01 11010:0.99 11011:0.99 11012:0.01 11013:0.01 11014:0.01 11015:0.01 11016:0.01 11017:0.01 12000:0.01 12001:0.01 12002:0.01 12003:0.01 12004:0.01 12005:0.01 12006:0.01 12007:0.01 12008:0.01 12009:0.99 12010:0.99 12011:0.99 12012:0.01 12013:0.01 12014:0.01 12015:0.01 12016:0.01 12017:0.01 13000:0.01 13001:0.01 13002:0.01 13003:0.01 13004:0.01 13005:0.01 13006:0.01 13007:0.01 13008:0.01 13009:0.01 13010:0.99 13011:0.99 13012:0.01 13013:0.01 13014:0.01 13015:0.01 13016:0.99 13017:0.99 14000:0.01 14001:0.01 14002:0.01 14003:0.01 14004:0.01 14005:0.01 14006:0.01 14007:0.01 14008:0.99 14009:0.99 14010:0.01 14011:0.01 14012:0.99 14013:0.99 14014:0.99 14015:0.99 14016:0.99 14017:0.99 15000:0.01 15001:0.01 15002:0.01 15003:0.01 15004:0.01 15005:0.01 15006:0.01 15007:0.99 15008:0.99 15009:0.99 15010:0.99 15011:0.99 15012:0.99 15013:0.99 15014:0.01 15015:0.01 15016:0.01 15017:0.01 
0.15218374047831892 0.043484897897073126 0.052765360959494086 0.030479878992945887 0.09162905076864716 0.023156308078847516 0.024935902253271282 0.04820363984540678 0.030266955502714115 0.04754577845777392 0.0 0.0 0.029288062647061495 0.02356781405947939 0.01902680949003406 0.015888305386711557 0.026537215706828585 0.025237452533138176 0.026262958265778385 0.005310516954536071 0.03018218434567622 0.0 0.061364293557024475 0.03759671160244027 0.031186018879077203 0.016161534012534354 0.0 0.05373206483747842 0.052506003827855065 0.04245206676792983 0:0.01 1:0.99 2:0.99 3:0.99 4:0.99 5:0.99 6:0.01 7:0.01 8:0.01 9:0.01 10:0.01 11:0.01 12:0.01 1000:0.99 1001:0.99 1002:0.01 1003:0.01 1004:0.99 1005:0.99 1006:0.01 1007:0.01 1008:0.01 1009:0.01 1010:0.01 1011:0.01 1012:0.01 2000:0.99 2001:0.99 2002:0.01 2003:0.01 2004:0.01 2005:0.01 2006:0.99 2007:0.99 2008:0.01 2009:0.01 2010:0.01 2011:0.01 2012:0.01 3000:0.99 3001:0.01 3002:0.01 3003:0.01 3004:0.01 3005:0.01 3006:0.01 3007:0.99 3008:0.01 3009:0.01 3010:0.01 3011:0.01 3012:0.01 4000:0.01 4001:0.99 4002:0.01 4003:0.01 4004:0.01 4005:0.01 4006:0.01 4007:0.01 4008:0.99 4009:0.01 4010:0.01 4011:0.01 4012:0.01 5000:0.01 5001:0.01 5002:0.01 5003:0.01 5004:0.01 5005:0.01 5006:0.01 5007:0.01 5008:0.99 5009:0.99 5010:0.01 5011:0.01 5012:0.01 6000:0.01 6001:0.01 6002:0.01 6003:0.01 6004:0.01 6005:0.01 6006:0.01 6007:0.99 6008:0.99 6009:0.01 6010:0.01 6011:0.01 6012:0.01 7000:0.01 7001:0.01 7002:0.01 7003:0.01 7004:0.01 7005:0.01 7006:0.01 7007:0.99 7008:0.99 7009:0.01 7010:0.01 7011:0.01 7012:0.01 8000:0.01 8001:0.01 8002:0.01 8003:0.01 8004:0.01 8005:0.01 8006:0.01 8007:0.99 8008:0.01 8009:0.01 8010:0.01 8011:0.01 8012:0.01 9000:0.01 9001:0.01 9002:0.01 9003:0.01 9004:0.01 9005:0.01 9006:0.01 9007:0.99 9008:0.99 9009:0.01 9010:0.01 9011:0.01 9012:0.01 10000:0.01 10001:0.01 10002:0.01 10003:0.01 10004:0.01 10005:0.01 10006:0.99 10007:0.01 10008:0.01 10009:0.99 10010:0.99 10011:0.99 10012:0.99 11000:0.01 11001:0.01 11002:0.01 11003:0.01 11004:0.01 11005:0.99 11006:0.99 11007:0.99 11008:0.99 11009:0.99 11010:0.99 11011:0.01 11012:0.01 12000:0.01 12001:0.01 12002:0.01 12003:0.01 12004:0.01 12005:0.99 12006:0.99 12007:0.99 12008:0.01 12009:0.01 12010:0.01 12011:0.01 12012:0.01 
0.00699559619249684 0.0010875709712139243 0.016166895452379374 0.0 0.007686583324871776 0.005632785713707814 0.0 0.006795483861293737 0.0 0.0 0.0 0.0 0.007904179509266439 0.005932542199561646 0.007329830227048586 0.0 0.0 0.006139107804505144 0.012545189722896827 0.00914005367155935 0.0013686149869622125 4.178666428594123E-4 0.02182063257714509 0.0 0.0 0.0 0.0 0.0029083497637050234 0.0 0.048093564937352354 0:0.01 1:0.01 2:0.01 3:0.01 4:0.99 5:0.99 6:0.99 7:0.01 8:0.01 9:0.01 10:0.01 11:0.01 12:0.01 13:0.01 14:0.01 1000:0.01 1001:0.01 1002:0.01 1003:0.99 1004:0.99 1005:0.99 1006:0.99 1007:0.99 1008:0.99 1009:0.99 1010:0.01 1011:0.01 1012:0.01 1013:0.01 1014:0.01 2000:0.01 2001:0.01 2002:0.99 2003:0.99 2004:0.99 2005:0.01 2006:0.01 2007:0.01 2008:0.99 2009:0.99 2010:0.01 2011:0.01 2012:0.01 2013:0.01 2014:0.01 3000:0.01 3001:0.01 3002:0.99 3003:0.99 3004:0.99 3005:0.01 3006:0.01 3007:0.01 3008:0.01 3009:0.01 3010:0.01 3011:0.01 3012:0.01 3013:0.01 3014:0.01 4000:0.01 4001:0.01 4002:0.01 4003:0.99 4004:0.01 4005:0.01 4006:0.01 4007:0.01 4008:0.01 4009:0.01 4010:0.01 4011:0.01 4012:0.01 4013:0.01 4014:0.01 5000:0.01 5001:0.01 5002:0.01 5003:0.01 5004:0.01 5005:0.01 5006:0.01 5007:0.01 5008:0.01 5009:0.01 5010:0.01 5011:0.01 5012:0.01 5013:0.01 5014:0.01 6000:0.01 6001:0.01 6002:0.01 6003:0.01 6004:0.01 6005:0.01 6006:0.01 6007:0.01 6008:0.01 6009:0.01 6010:0.01 6011:0.01 6012:0.01 6013:0.01 6014:0.99 7000:0.01 7001:0.01 7002:0.01 7003:0.01 7004:0.01 7005:0.01 7006:0.01 7007:0.01 7008:0.01 7009:0.01 7010:0.01 7011:0.01 7012:0.01 7013:0.99 7014:0.99 8000:0.01 8001:0.01 8002:0.01 8003:0.01 8004:0.01 8005:0.01 8006:0.01 8007:0.01 8008:0.01 8009:0.01 8010:0.01 8011:0.01 8012:0.99 8013:0.99 8014:0.99 9000:0.01 9001:0.01 9002:0.01 9003:0.01 9004:0.01 9005:0.01 9006:0.01 9007:0.01 9008:0.01 9009:0.01 9010:0.01 9011:0.99 9012:0.99 9013:0.99 9014:0.01 10000:0.01 10001:0.01 10002:0.01 10003:0.01 10004:0.01 10005:0.01 10006:0.01 10007:0.01 10008:0.01 10009:0.01 10010:0.99 10011:0.99 10012:0.99 10013:0.99 10014:0.01 11000:0.01 11001:0.01 11002:0.01 11003:0.01 11004:0.01 11005:0.01 11006:0.01 11007:0.99 11008:0.99 11009:0.99 11010:0.99 11011:0.99 11012:0.01 11013:0.01 11014:0.01 12000:0.01 12001:0.01 12002:0.01 12003:0.01 12004:0.99 12005:0.99 12006:0.99 12007:0.99 12008:0.99 12009:0.01 12010:0.01 12011:0.01 12012:0.01 12013:0.01 12014:0.01 13000:0.01 13001:0.99 13002:0.99 13003:0.99 13004:0.99 13005:0.99 13006:0.01 13007:0.01 13008:0.01 13009:0.01 13010:0.01 13011:0.01 13012:0.01 13013:0.01 13014:0.01 14000:0.01 14001:0.99 14002:0.99 14003:0.99 14004:0.01 14005:0.01 14006:0.01 14007:0.01 14008:0.01 14009:0.01 14010:0.01 14011:0.01 14012:0.01 14013:0.01 14014:0.01 15000:0.99 15001:0.99 15002:0.99 15003:0.99 15004:0.99 15005:0.99 15006:0.01 15007:0.01 15008:0.01 15009:0.01 15010:0.01 15011:0.01 15012:0.01 15013:0.01 15014:0.01 16000:0.01 16001:0.01 16002:0.99 16003:0.99 16004:0.99 16005:0.99 16006:0.99 16007:0.99 16008:0.01 16009:0.01 16010:0.01 16011:0.01 16012:0.01 16013:0.01 16014:0.01 17000:0.01 17001:0.01 17002:0.01 17003:0.01 17004:0.01 17005:0.99 17006:0.99 17007:0.99 17008:0.99 17009:0.99 17010:0.01 17011:0.01 17012:0.01 17013:0.01 17014:0.01 
0.031988158682391965 0.0 0.016060129187497694 0.012279777592674108 0.0 0.013695270094167588 0.009731920471769774 0.01306078227910731 0.028804345167361675 0.01875623417941988 0.010288734937933497 0.018606885647164513 0.03762505207167216 0.025635602560841672 0.007458835848361766 0.020482953413491232 0.01571246510721863 0.019379298204037384 0.0 0.06528442241208023 0.009390052482316592 0.004911310777556147 0.01892499834928815 0.0 0.011840777133034474 0.0 0.0 1.4880084146387564E-4 0.009427682218690017 0.012088091148961656 0:0.01 1:0.99 2:0.99 3:0.99 4:0.99 5:0.99 6:0.99 7:0.99 8:0.01 9:0.01 10:0.01 11:0.01 1000:0.99 1001:0.99 1002:0.99 1003:0.01 1004:0.01 1005:0.01 1006:0.01 1007:0.99 1008:0.99 1009:0.01 1010:0.01 1011:0.01 2000:0.01 2001:0.99 2002:0.99 2003:0.01 2004:0.01 2005:0.01 2006:0.01 2007:0.01 2008:0.01 2009:0.99 2010:0.99 2011:0.01 3000:0.01 3001:0.99 3002:0.01 3003:0.01 3004:0.01 3005:0.01 3006:0.01 3007:0.01 3008:0.01 3009:0.99 3010:0.99 3011:0.01 4000:0.01 4001:0.01 4002:0.01 4003:0.01 4004:0.01 4005:0.01 4006:0.01 4007:0.01 4008:0.01 4009:0.01 4010:0.99 4011:0.99 5000:0.01 5001:0.01 5002:0.01 5003:0.01 5004:0.01 5005:0.01 5006:0.01 5007:0.01 5008:0.01 5009:0.01 5010:0.01 5011:0.99 6000:0.01 6001:0.01 6002:0.01 6003:0.01 6004:0.01 6005:0.01 6006:0.01 6007:0.01 6008:0.01 6009:0.01 6010:0.01 6011:0.99 7000:0.01 7001:0.01 7002:0.01 7003:0.01 7004:0.01 7005:0.01 7006:0.01 7007:0.01 7008:0.01 7009:0.01 7010:0.99 7011:0.99 8000:0.01 8001:0.01 8002:0.01 8003:0.01 8004:0.01 8005:0.01 8006:0.01 8007:0.01 8008:0.01 8009:0.99 8010:0.99 8011:0.01 9000:0.01 9001:0.01 9002:0.01 9003:0.01 9004:0.01 9005:0.01 9006:0.01 9007:0.01 9008:0.99 9009:0.99 9010:0.99 9011:0.99 10000:0.01 10001:0.01 10002:0.01 10003:0.01 10004:0.01 10005:0.99 10006:0.99 10007:0.99 10008:0.01 10009:0.01 10010:0.01 10011:0.01 11000:0.01 11001:0.01 11002:0.01 11003:0.99 11004:0.99 11005:0.99 11006:0.01 11007:0.01 11008:0.01 11009:0.01 11010:0.01 11011:0.01 12000:0.01 12001:0.99 12002:0.99 12003:0.99 12004:0.01 12005:0.01 12006:0.99 12007:0.01 12008:0.01 12009:0.01 12010:0.01 12011:0.01 13000:0.01 13001:0.99 13002:0.99 13003:0.99 13004:0.99 13005:0.01 13006:0.01 13007:0.01 13008:0.01 13009:0.01 13010:0.01 13011:0.01 14000:0.01 14001:0.99 14002:0.99 14003:0.99 14004:0.99 14005:0.99 14006:0.99 14007:0.99 14008:0.99 14009:0.01 14010:0.01 14011:0.01 
0.0 0.01429859303473206 0.0 0.0 0.011787969793905086 0.002877931669831271 8.605256291806159E-4 0.006978668331219278 0.011800461550628591 0.0021466718392980063 0.0011236079447847305 0.016124810635125258 0.0160496751206565 0.008684569886251247 0.004632789907288732 0.023925320535049286 0.017888444498464107 0.022120036465511635 0.030112852043091887 0.023561516677881155 0.0030143044420740603 0.0 0.0 0.0192017065805035 0.016908327269463473 0.0166377815730474 0.003095487496319527 0.01473133132114115 0.004027830094568169 0.0 0:0.01 1:0.01 2:0.01 3:0.01 4:0.01 5:0.01 6:0.01 7:0.01 8:0.01 9:0.01 10:0.01 11:0.01 12:0.01 13:0.99 1000:0.01 1001:0.01 1002:0.01 1003:0.99 1004:0.99 1005:0.99 1006:0.01 1007:0.01 1008:0.01 1009:0.01 1010:0.01 1011:0.01 1012:0.01 1013:0.99 2000:0.01 2001:0.01 2002:0.99 2003:0.99 2004:0.99 2005:0.99 2006:0.99 2007:0.99 2008:0.99 2009:0.01 2010:0.01 2011:0.01 2012:0.01 2013:0.01 3000:0.01 3001:0.01 3002:0.99 3003:0.99 3004:0.99 3005:0.01 3006:0.01 3007:0.01 3008:0.99 3009:0.99 3010:0.99 3011:0.01 3012:0.01 3013:0.01 4000:0.01 4001:0.99 4002:0.99 4003:0.99 4004:0.01 4005:0.01 4006:0.01 4007:0.01 4008:0.01 4009:0.01 4010:0.99 4011:0.99 4012:0.01 4013:0.01 5000:0.99 5001:0.01 5002:0.99 5003:0.99 5004:0.01 5005:0.01 5006:0.01 5007:0.01 5008:0.01 5009:0.01 5010:0.01 5011:0.99 5012:0.99 5013:0.01 6000:0.01 6001:0.01 6002:0.01 6003:0.01 6004:0.01 6005:0.01 6006:0.01 6007:0.01 6008:0.01 6009:0.01 6010:0.01 6011:0.99 6012:0.99 6013:0.01 7000:0.01 7001:0.01 7002:0.01 7003:0.01 7004:0.01 7005:0.01 7006:0.01 7007:0.01 7008:0.01 7009:0.01 7010:0.01 7011:0.01 7012:0.99 7013:0.99 8000:0.01 8001:0.01 8002:0.01 8003:0.01 8004:0.01 8005:0.01 8006:0.01 8007:0.01 8008:0.01 8009:0.01 8010:0.01 8011:0.01 8012:0.99 8013:0.99 9000:0.01 9001:0.01 9002:0.01 9003:0.01 9004:0.01 9005:0.01 9006:0.01 9007:0.01 9008:0.01 9009:0.01 9010:0.01 9011:0.01 9012:0.99 9013:0.99 10000:0.01 10001:0.01 10002:0.01 10003:0.01 10004:0.01 10005:0.01 10006:0.01 10007:0.01 10008:0.99 10009:0.01 10010:0.01 10011:0.99 10012:0.99 10013:0.01 11000:0.01 11001:0.01 11002:0.01 11003:0.01 11004:0.01 11005:0.01 11006:0.01 11007:0.01 11008:0.01 11009:0.99 11010:0.99 11011:0.99 11012:0.01 11013:0.01 12000:0.01 12001:0.01 12002:0.01 12003:0.01 12004:0.01 12005:0.01 12006:0.01 12007:0.01 12008:0.01 12009:0.99 12010:0.99 12011:0.01 12012:0.01 12013:0.01 13000:0.01 13001:0.01 13002:0.01 13003:0.01 13004:0.01 13005:0.01 13006:0.99 13007:0.99 13008:0.99 13009:0.01 13010:0.01 13011:0.01 13012:0.01 13013:0.01 14000:0.01 14001:0.01 14002:0.01 14003:0.01 14004:0.01 14005:0.99 14006:0.99 14007:0.99 14008:0.01 14009:0.01 14010:0.01 14011:0.01 14012:0.01 14013:0.01 15000:0.01 15001:0.01 15002:0.01 15003:0.01 15004:0.99 15005:0.99 15006:0.99 15007:0.01 15008:0.01 15009:0.01 15010:0.01 15011:0.01 15012:0.01 15013:0.01 16000:0.01 16001:0.01 16002:0.01 16003:0.99 16004:0.99 16005:0.99 16006:0.99 16007:0.99 16008:0.99 16009:0.99 16010:0.99 16011:0.99 16012:0.99 16013:0.99 
0.0837863432847885 0.014695833474671639 0.021711582459843063 0.0 0.07248519251681486 0.01788115566690545 0.018641175490490335 0.030963546849947954 0.0 0.0 0.0 0.0 0.0 6.768283244070833E-4 0.009197588634694704 0.008698517312675047 0.01492057719389602 0.021193867999206792 0.017269274180501636 0.0013966274723298919 0.014540304984518058 0.0 0.007746823305165803 0.03556924043700339 0.020907531584735246 0.014824470581825372 0.006885146044020813 0.01689136377523032 0.026828333398068175 0.03255220706873884 0:0.01 1:0.99 2:0.99 3:0.99 4:0.99 5:0.99 6:0.99 7:0.01 8:0.01 9:0.01 10:0.01 11:0.01 12:0.01 13:0.01 14:0.01 1000:0.01 1001:0.99 1002:0.99 1003:0.01 1004:0.01 1005:0.01 1006:0.99 1007:0.99 1008:0.99 1009:0.01 1010:0.01 1011:0.01 1012:0.01 1013:0.01 1014:0.01 2000:0.99 2001:0.99 2002:0.01 2003:0.01 2004:0.01 2005:0.01 2006:0.01 2007:0.99 2008:0.99 2009:0.01 2010:0.01 2011:0.01 2012:0.01 2013:0.01 2014:0.01 3000:0.01 3001:0.99 3002:0.01 3003:0.01 3004:0.01 3005:0.01 3006:0.01 3007:0.01 3008:0.99 3009:0.99 3010:0.01 3011:0.01 3012:0.01 3013:0.01 3014:0.01 4000:0.01 4001:0.99 4002:0.01 4003:0.01 4004:0.01 4005:0.01 4006:0.01 4007:0.01 4008:0.99 4009:0.99 4010:0.01 4011:0.01 4012:0.01 4013:0.01 4014:0.01 5000:0.01 5001:0.01 5002:0.01 5003:0.01 5004:0.01 5005:0.01 5006:0.01 5007:0.01 5008:0.01 5009:0.99 5010:0.99 5011:0.01 5012:0.01 5013:0.01 5014:0.01 6000:0.01 6001:0.01 6002:0.01 6003:0.01 6004:0.01 6005:0.01 6006:0.01 6007:0.01 6008:0.01 6009:0.01 6010:0.99 6011:0.01 6012:0.01 6013:0.01 6014:0.01 7000:0.01 7001:0.01 7002:0.01 7003:0.01 7004:0.01 7005:0.01 7006:0.01 7007:0.01 7008:0.01 7009:0.99 7010:0.99 7011:0.01 7012:0.01 7013:0.01 7014:0.01 8000:0.01 8001:0.01 8002:0.01 8003:0.01 8004:0.01 8005:0.01 8006:0.01 8007:0.01 8008:0.01 8009:0.99 8010:0.01 8011:0.99 8012:0.01 8013:0.01 8014:0.01 9000:0.01 9001:0.01 9002:0.01 9003:0.01 9004:0.01 9005:0.01 9006:0.01 9007:0.01 9008:0.99 9009:0.99 9010:0.01 9011:0.01 9012:0.01 9013:0.01 9014:0.01 10000:0.01 10001:0.01 10002:0.01 10003:0.01 10004:0.01 10005:0.01 10006:0.01 10007:0.01 10008:0.99 10009:0.99 10010:0.99 10011:0.01 10012:0.01 10013:0.01 10014:0.99 11000:0.01 11001:0.01 11002:0.01 11003:0.01 11004:0.01 11005:0.01 11006:0.01 11007:0.99 11008:0.01 11009:0.01 11010:0.01 11011:0.99 11012:0.99 11013:0.99 11014:0.99 12000:0.01 12001:0.01 12002:0.01 12003:0.01 12004:0.01 12005:0.01 12006:0.99 12007:0.99 12008:0.99 12009:0.99 12010:0.99 12011:0.99 12012:0.01 12013:0.01 12014:0.01 
0.03367234945139851 0.03270894234826257 0.0367127927909485 0.02526730235969524 0.08711365899884486 0.046733493095284254 0.022060161808578373 0.053322587408002574 0.0422054338243031 0.024044336010053385 0.0 0.03727570634806847 0.04628029375709376 0.05492740971275779 0.04025559511618695 0.05130961970083319 0.03958005034513763 0.03396532945813596 0.04552652979129984 0.08393378232934971 0.028177175753337506 0.012167147244634673 0.05640686705457488 0.062447804128143596 0.04543307301619153 0.032761406433810716 0.004417623523955787 0.03830155614380131 0.04169369808997537 0.053181865415440246 0:0.01 1:0.01 2:0.01 3:0.01 4:0.01 5:0.01 6:0.99 7:0.99 8:0.99 9:0.99 10:0.99 11:0.01 12:0.01 1000:0.01 1001:0.01 1002:0.01 1003:0.01 1004:0.01 1005:0.99 1006:0.99 1007:0.01 1008:0.01 1009:0.01 1010:0.99 1011:0.99 1012:0.01 2000:0.01 2001:0.01 2002:0.01 2003:0.01 2004:0.01 2005:0.01 2006:0.01 2007:0.01 2008:0.01 2009:0.01 2010:0.01 2011:0.99 2012:0.99 3000:0.01 3001:0.01 3002:0.01 3003:0.01 3004:0.01 3005:0.01 3006:0.01 3007:0.01 3008:0.01 3009:0.01 3010:0.01 3011:0.99 3012:0.99 4000:0.01 4001:0.01 4002:0.01 4003:0.01 4004:0.01 4005:0.01 4006:0.01 4007:0.01 4008:0.01 4009:0.01 4010:0.01 4011:0.01 4012:0.99 5000:0.01 5001:0.01 5002:0.01 5003:0.01 5004:0.01 5005:0.01 5006:0.01 5007:0.01 5008:0.01 5009:0.01 5010:0.99 5011:0.99 5012:0.01 6000:0.01 6001:0.01 6002:0.01 6003:0.01 6004:0.01 6005:0.01 6006:0.01 6007:0.01 6008:0.01 6009:0.99 6010:0.99 6011:0.99 6012:0.01 7000:0.01 7001:0.01 7002:0.01 7003:0.01 7004:0.01 7005:0.99 7006:0.99 7007:0.99 7008:0.99 7009:0.99 7010:0.01 7011:0.01 7012:0.01 8000:0.01 8001:0.01 8002:0.99 8003:0.99 8004:0.99 8005:0.99 8006:0.01 8007:0.01 8008:0.01 8009:0.01 8010:0.01 8011:0.01 8012:0.01 9000:0.99 9001:0.99 9002:0.99 9003:0.01 9004:0.01 9005:0.01 9006:0.01 9007:0.01 9008:0.01 9009:0.01 9010:0.01 9011:0.01 9012:0.01 10000:0.01 10001:0.99 10002:0.99 10003:0.99 10004:0.01 10005:0.01 10006:0.01 10007:0.01 10008:0.01 10009:0.01 10010:0.01 10011:0.01 10012:0.01 11000:0.01 11001:0.01 11002:0.01 11003:0.99 11004:0.99 11005:0.99 11006:0.99 11007:0.01 11008:0.01 11009:0.01 11010:0.01 11011:0.01 11012:0.01 
0.045108193239101146 0.0 0.0 0.0 0.01879385347458863 0.01331185421231176 0.012790156209371637 0.0 0.0018377247586483128 0.0 3.488643119223526E-4 0.0 0.0 0.0 0.0 0.0 4.2764051367991134E-4 0.0 0.0 0.01872340410542524 0.010529702704407208 2.6588002024359236E-4 0.0 0.006096227195592403 1.9569812552997314E-4 0.0 0.0 0.0 0.0 0.011378032797501731 0:0.99 1:0.99 2:0.99 3:0.99 4:0.99 5:0.99 6:0.99 7:0.01 8:0.01 9:0.01 10:0.01 11:0.01 1000:0.99 1001:0.99 1002:0.99 1003:0.01 1004:0.01 1005:0.01 1006:0.99 1007:0.99 1008:0.99 1009:0.01 1010:0.01 1011:0.01 2000:0.99 2001:0.99 2002:0.01 2003:0.01 2004:0.01 2005:0.01 2006:0.01 2007:0.01 2008:0.99 2009:0.99 2010:0.01 2011:0.01 3000:0.99 3001:0.99 3002:0.01 3003:0.01 3004:0.01 3005:0.01 3006:0.01 3007:0.01 3008:0.01 3009:0.99 3010:0.99 3011:0.01 4000:0.01 4001:0.01 4002:0.01 4003:0.01 4004:0.01 4005:0.01 4006:0.01 4007:0.01 4008:0.01 4009:0.99 4010:0.99 4011:0.01 5000:0.01 5001:0.01 5002:0.01 5003:0.01 5004:0.01 5005:0.01 5006:0.01 5007:0.01 5008:0.01 5009:0.01 5010:0.99 5011:0.99 6000:0.01 6001:0.01 6002:0.01 6003:0.01 6004:0.01 6005:0.01 6006:0.01 6007:0.01 6008:0.01 6009:0.01 6010:0.01 6011:0.99 7000:0.01 7001:0.01 7002:0.01 7003:0.01 7004:0.01 7005:0.01 7006:0.01 7007:0.01 7008:0.01 7009:0.99 7010:0.99 7011:0.99 8000:0.01 8001:0.01 8002:0.01 8003:0.01 8004:0.01 8005:0.01 8006:0.01 8007:0.01 8008:0.99 8009:0.99 8010:0.99 8011:0.01 9000:0.01 9001:0.01 9002:0.01 9003:0.01 9004:0.01 9005:0.01 9006:0.01 9007:0.99 9008:0.99 9009:0.99 9010:0.01 9011:0.01 10000:0.01 10001:0.01 10002:0.01 10003:0.01 10004:0.01 10005:0.01 10006:0.01 10007:0.99 10008:0.99 10009:0.99 10010:0.01 10011:0.01 11000:0.01 11001:0.01 11002:0.01 11003:0.01 11004:0.99 11005:0.99 11006:0.99 11007:0.01 11008:0.01 11009:0.01 11010:0.01 11011:0.01 12000:0.01 12001:0.01 12002:0.01 12003:0.99 12004:0.99 12005:0.99 12006:0.01 12007:0.01 12008:0.01 12009:0.01 12010:0.01 12011:0.01 13000:0.01 13001:0.99 13002:0.99 13003:0.99 13004:0.99 13005:0.01 13006:0.01 13007:0.01 13008:0.01 13009:0.01 13010:0.01 13011:0.01 14000:0.01 14001:0.99 14002:0.99 14003:0.99 14004:0.99 14005:0.99 14006:0.99 14007:0.99 14008:0.99 14009:0.99 14010:0.99 14011:0.99 
0.0 0.006639811450581827 0.026784905175292608 0.0018471025087066573 0.049329342033824025 0.011917899678558715 0.0 0.0 0.011653097203811568 0.005017369553631955 0.008788251884029387 0.044919775994490936 0.021699139989167945 0.0017909673693973706 0.0 0.0010091257304806248 0.0020651894240387536 0.0 0.007504680850388623 0.016854808132062173 0.0 0.0 0.0 0.005274599870835135 0.018163297425728368 0.0 0.0 0.015510662632824575 0.009264609999561904 0.02178788300222749 0:0.01 1:0.01 2:0.01 3:0.99 4:0.01 5:0.01 6:0.01 7:0.01 8:0.01 9:0.01 10:0.01 1000:0.01 1001:0.01 1002:0.99 1003:0.99 1004:0.99 1005:0.99 1006:0.01 1007:0.01 1008:0.01 1009:0.01 1010:0.01 2000:0.01 2001:0.99 2002:0.99 2003:0.99 2004:0.99 2005:0.99 2006:0.99 2007:0.99 2008:0.01 2009:0.01 2010:0.01 3000:0.01 3001:0.99 3002:0.99 3003:0.01 3004:0.01 3005:0.01 3006:0.01 3007:0.01 3008:0.99 3009:0.01 3010:0.01 4000:0.99 4001:0.99 4002:0.01 4003:0.01 4004:0.01 4005:0.01 4006:0.01 4007:0.01 4008:0.99 4009:0.99 4010:0.01 5000:0.01 5001:0.01 5002:0.01 5003:0.01 5004:0.01 5005:0.01 5006:0.01 5007:0.01 5008:0.01 5009:0.99 5010:0.99 6000:0.01 6001:0.01 6002:0.01 6003:0.01 6004:0.01 6005:0.01 6006:0.01 6007:0.01 6008:0.01 6009:0.01 6010:0.99 7000:0.01 7001:0.01 7002:0.01 7003:0.01 7004:0.01 7005:0.01 7006:0.01 7007:0.01 7008:0.01 7009:0.01 7010:0.99 8000:0.01 8001:0.01 8002:0.01 8003:0.01 8004:0.01 8005:0.01 8006:0.01 8007:0.99 8008:0.01 8009:0.99 8010:0.99 9000:0.01 9001:0.01 9002:0.01 9003:0.01 9004:0.01 9005:0.01 9006:0.01 9007:0.01 9008:0.99 9009:0.99 9010:0.01 10000:0.01 10001:0.01 10002:0.01 10003:0.01 10004:0.01 10005:0.01 10006:0.01 10007:0.99 10008:0.99 10009:0.01 10010:0.01 11000:0.01 11001:0.01 11002:0.01 11003:0.01 11004:0.01 11005:0.99 11006:0.99 11007:0.01 11008:0.01 11009:0.01 11010:0.01 12000:0.01 12001:0.01 12002:0.01 12003:0.01 12004:0.99 12005:0.99 12006:0.01 12007:0.01 12008:0.01 12009:0.01 12010:0.01 13000:0.01 13001:0.01 13002:0.99 13003:0.99 13004:0.99 13005:0.01 13006:0.01 13007:0.01 13008:0.01 13009:0.01 13010:0.01 14000:0.01 14001:0.01 14002:0.99 14003:0.99 14004:0.99 14005:0.99 14006:0.99 14007:0.99 14008:0.99 14009:0.99 14010:0.99 
0.0 0.0 0.03441672541386203 0.005876010878618416 0.016043342289962653 0.013501111265868442 0.0 0.0 0.0 0.005513583868603281 0.0011939774749632915 0.014711701966714164 0.002060147038639892 0.0 0.0 0.026520544035475838 0.0 0.010068639116721834 0.014369014033755493 0.00461126211435124 0.01087815184000347 0.0 0.0 0.014985788388329337 0.01583561873646363 0.007386113658963066 0.001230759510660704 0.0 0.002472789143704383 0.0 0:0.01 1:0.01 2:0.01 3:0.99 4:0.01 5:0.01 6:0.01 7:0.01 8:0.01 9:0.01 10:0.01 11:0.01 12:0.01 13:0.01 14:0.01 15:0.01 16:0.01 17:0.01 1000:0.01 1001:0.99 1002:0.99 1003:0.99 1004:0.99 1005:0.99 1006:0.99 1007:0.99 1008:0.01 1009:0.01 1010:0.01 1011:0.01 1012:0.01 1013:0.01 1014:0.01 1015:0.01 1016:0.01 1017:0.01 2000:0.99 2001:0.99 2002:0.99 2003:0.01 2004:0.99 2005:0.01 2006:0.99 2007:0.99 2008:0.99 2009:0.01 2010:0.01 2011:0.01 2012:0.01 2013:0.01 2014:0.01 2015:0.01 2016:0.01 2017:0.01 3000:0.01 3001:0.99 3002:0.99 3003:0.01 3004:0.01 3005:0.01 3006:0.01 3007:0.01 3008:0.01 3009:0.99 3010:0.99 3011:0.01 3012:0.01 3013:0.01 3014:0.01 3015:0.01 3016:0.01 3017:0.01 4000:0.01 4001:0.99 4002:0.99 4003:0.01 4004:0.01 4005:0.01 4006:0.01 4007:0.01 4008:0.01 4009:0.01 4010:0.99 4011:0.99 4012:0.01 4013:0.01 4014:0.01 4015:0.01 4016:0.01 4017:0.01 5000:0.01 5001:0.99 5002:0.99 5003:0.01 5004:0.01 5005:0.01 5006:0.01 5007:0.01 5008:0.01 5009:0.01 5010:0.99 5011:0.99 5012:0.01 5013:0.01 5014:0.01 5015:0.01 5016:0.01 5017:0.01 6000:0.01 6001:0.01 6002:0.99 6003:0.99 6004:0.01 6005:0.01 6006:0.01 6007:0.01 6008:0.01 6009:0.01 6010:0.01 6011:0.99 6012:0.99 6013:0.01 6014:0.01 6015:0.01 6016:0.01 6017:0.01 7000:0.01 7001:0.01 7002:0.01 7003:0.01 7004:0.01 7005:0.01 7006:0.01 7007:0.01 7008:0.01 7009:0.01 7010:0.01 7011:0.99 7012:0.99 7013:0.01 7014:0.01 7015:0.01 7016:0.01 7017:0.01 8000:0.01 8001:0.01 8002:0.01 8003:0.01 8004:0.01 8005:0.01 8006:0.01 8007:0.01 8008:0.01 8009:0.01 8010:0.01 8011:0.99 8012:0.99 8013:0.01 8014:0.01 8015:0.01 8016:0.01 8017:0.01 9000:0.01 9001:0.01 9002:0.01 9003:0.01 9004:0.01 9005:0.01 9006:0.01 9007:0.01 9008:0.01 9009:0.01 9010:0.01 9011:0.99 9012:0.99 9013:0.01 9014:0.01 9015:0.01 9016:0.01 9017:0.01 10000:0.01 10001:0.01 10002:0.01 10003:0.01 10004:0.01 10005:0.01 10006:0.01 10007:0.01 10008:0.01 10009:0.01 10010:0.01 10011:0.99 10012:0.99 10013:0.01 10014:0.01 10015:0.01 10016:0.01 10017:0.01 11000:0.01 11001:0.01 11002:0.01 11003:0.01 11004:0.01 11005:0.01 11006:0.01 11007:0.01 11008:0.01 11009:0.01 11010:0.99 11011:0.99 11012:0.01 11013:0.01 11014:0.01 11015:0.01 11016:0.01 11017:0.01 12000:0.01 12001:0.01 12002:0.01 12003:0.01 12004:0.01 12005:0.01 12006:0.01 12007:0.01 12008:0.01 12009:0.99 12010:0.99 12011:0.01 12012:0.01 12013:0.01 12014:0.01 12015:0.01 12016:0.01 12017:0.01 13000:0.01 13001:0.01 13002:0.01 13003:0.01 13004:0.01 13005:0.01 13006:0.01 13007:0.01 13008:0.01 13009:0.01 13010:0.99 13011:0.01 13012:0.01 13013:0.01 13014:0.01 13015:0.01 13016:0.99 13017:0.99 14000:0.01 14001:0.01 14002:0.01 14003:0.01 14004:0.01 14005:0.01 14006:0.01 14007:0.01 14008:0.99 14009:0.99 14010:0.01 14011:0.01 14012:0.99 14013:0.99 14014:0.99 14015:0.99 14016:0.99 14017:0.01 15000:0.01 15001:0.01 15002:0.01 15003:0.01 15004:0.01 15005:0.01 15006:0.01 15007:0.99 15008:0.99 15009:0.99 15010:0.99 15011:0.99 15012:0.99 15013:0.99 15014:0.01 15015:0.01 15016:0.01 15017:0.01 
0.049037679432176975 0.0 0.0 0.0 0.029652019153990593 0.025587532722318684 0.0 0.0 0.007048839536515363 0.0 0.0 0.0 0.0 0.0 0.0 0.0 0.0 0.01210255714505028 7.403815989681555E-4 0.02310612120644143 0.02396834383097309 0.002679689357749445 0.004401854031784963 0.0 0.0 0.0 0.0 0.0 0.0 0.0 0:0.01 1:0.01 2:0.01 3:0.99 4:0.99 5:0.99 6:0.99 7:0.99 8:0.99 9:0.01 10:0.01 11:0.01 12:0.01 13:0.01 14:0.01 15:0.01 1000:0.01 1001:0.99 1002:0.99 1003:0.99 1004:0.99 1005:0.99 1006:0.99 1007:0.99 1008:0.99 1009:0.99 1010:0.01 1011:0.01 1012:0.01 1013:0.01 1014:0.01 1015:0.01 2000:0.99 2001:0.99 2002:0.99 2003:0.01 2004:0.01 2005:0.01 2006:0.01 2007:0.01 2008:0.99 2009:0.99 2010:0.99 2011:0.01 2012:0.01 2013:0.01 2014:0.01 2015:0.01 3000:0.01 3001:0.99 3002:0.99 3003:0.01 3004:0.01 3005:0.01 3006:0.01 3007:0.01 3008:0.01 3009:0.01 3010:0.99 3011:0.99 3012:0.01 3013:0.01 3014:0.01 3015:0.01 4000:0.01 4001:0.01 4002:0.99 4003:0.99 4004:0.01 4005:0.01 4006:0.01 4007:0.01 4008:0.01 4009:0.01 4010:0.99 4011:0.99 4012:0.99 4013:0.99 4014:0.01 4015:0.01 5000:0.01 5001:0.01 5002:0.99 5003:0.01 5004:0.01 5005:0.01 5006:0.01 5007:0.01 5008:0.01 5009:0.01 5010:0.01 5011:0.99 5012:0.99 5013:0.01 5014:0.01 5015:0.01 6000:0.01 6001:0.01 6002:0.01 6003:0.01 6004:0.01 6005:0.01 6006:0.01 6007:0.01 6008:0.01 6009:0.01 6010:0.01 6011:0.01 6012:0.99 6013:0.99 6014:0.01 6015:0.01 7000:0.01 7001:0.01 7002:0.01 7003:0.01 7004:0.01 7005:0.01 7006:0.01 7007:0.01 7008:0.01 7009:0.01 7010:0.01 7011:0.99 7012:0.99 7013:0.99 7014:0.01 7015:0.01 8000:0.01 8001:0.01 8002:0.01 8003:0.01 8004:0.01 8005:0.01 8006:0.01 8007:0.01 8008:0.99 8009:0.01 8010:0.01 8011:0.01 8012:0.99 8013:0.99 8014:0.01 8015:0.01 9000:0.01 9001:0.01 9002:0.01 9003:0.01 9004:0.01 9005:0.01 9006:0.01 9007:0.01 9008:0.01 9009:0.99 9010:0.01 9011:0.01 9012:0.99 9013:0.99 9014:0.99 9015:0.01 10000:0.01 10001:0.01 10002:0.01 10003:0.01 10004:0.01 10005:0.01 10006:0.01 10007:0.01 10008:0.01 10009:0.01 10010:0.01 10011:0.99 10012:0.99 10013:0.99 10014:0.01 10015:0.01 11000:0.01 11001:0.01 11002:0.01 11003:0.01 11004:0.01 11005:0.01 11006:0.01 11007:0.01 11008:0.01 11009:0.01 11010:0.99 11011:0.99 11012:0.99 11013:0.01 11014:0.01 11015:0.01 12000:0.01 12001:0.01 12002:0.01 12003:0.01 12004:0.01 12005:0.01 12006:0.01 12007:0.01 12008:0.01 12009:0.99 12010:0.99 12011:0.99 12012:0.01 12013:0.01 12014:0.01 12015:0.01 13000:0.01 13001:0.01 13002:0.01 13003:0.01 13004:0.01 13005:0.01 13006:0.01 13007:0.01 13008:0.01 13009:0.99 13010:0.99 13011:0.01 13012:0.01 13013:0.01 13014:0.01 13015:0.01 14000:0.01 14001:0.01 14002:0.01 14003:0.01 14004:0.01 14005:0.01 14006:0.01 14007:0.99 14008:0.99 14009:0.01 14010:0.01 14011:0.01 14012:0.01 14013:0.01 14014:0.01 14015:0.01 15000:0.01 15001:0.01 15002:0.01 15003:0.01 15004:0.01 15005:0.01 15006:0.99 15007:0.99 15008:0.01 15009:0.01 15010:0.01 15011:0.01 15012:0.01 15013:0.99 15014:0.99 15015:0.99 16000:0.01 16001:0.01 16002:0.01 16003:0.01 16004:0.01 16005:0.99 16006:0.99 16007:0.99 16008:0.99 16009:0.99 16010:0.99 16011:0.99 16012:0.99 16013:0.99 16014:0.99 16015:0.99 
0.0 0.012648557668405528 0.007916796629888583 0.03713286000319076 0.0 0.013830114918487485 0.037551881855899624 0.03282554268645472 0.028699230817178796 0.04327407254588801 0.0 0.026641294268422974 0.023048307553242497 0.023785038518744646 0.05461957298722296 0.0019441885928775514 0.01810062025981661 0.009816779195556553 0.01826707094212421 0.039801531900681315 0.008574123248586859 0.009899732012913288 0.040141681267943916 0.013846887584062367 0.0 0.0043269210469035506 8.687257638939176E-4 0.002499126321310163 0.012296002388814406 0.03049811148994481 0:0.01 1:0.01 2:0.01 3:0.99 4:0.01 5:0.01 6:0.01 7:0.01 8:0.01 1000:0.01 1001:0.99 1002:0.99 1003:0.99 1004:0.99 1005:0.99 1006:0.01 1007:0.01 1008:0.01 2000:0.99 2001:0.99 2002:0.01 2003:0.01 2004:0.01 2005:0.99 2006:0.99 2007:0.01 2008:0.01 3000:0.01 3001:0.99 3002:0.01 3003:0.01 3004:0.01 3005:0.01 3006:0.01 3007:0.99 3008:0.01 4000:0.01 4001:0.01 4002:0.99 4003:0.01 4004:0.01 4005:0.01 4006:0.01 4007:0.01 4008:0.99 5000:0.01 5001:0.01 5002:0.01 5003:0.01 5004:0.01 5005:0.01 5006:0.01 5007:0.01 5008:0.99 6000:0.01 6001:0.01 6002:0.01 6003:0.01 6004:0.01 6005:0.01 6006:0.01 6007:0.99 6008:0.99 7000:0.01 7001:0.01 7002:0.01 7003:0.01 7004:0.01 7005:0.01 7006:0.01 7007:0.99 7008:0.99 8000:0.01 8001:0.01 8002:0.01 8003:0.01 8004:0.01 8005:0.01 8006:0.01 8007:0.99 8008:0.01 9000:0.01 9001:0.01 9002:0.01 9003:0.01 9004:0.99 9005:0.99 9006:0.01 9007:0.01 9008:0.01 10000:0.01 10001:0.01 10002:0.01 10003:0.99 10004:0.99 10005:0.01 10006:0.01 10007:0.01 10008:0.01 11000:0.01 11001:0.01 11002:0.99 11003:0.99 11004:0.99 11005:0.99 11006:0.99 11007:0.99 11008:0.99 12000:0.01 12001:0.01 12002:0.99 12003:0.99 12004:0.99 12005:0.99 12006:0.99 12007:0.01 12008:0.01 13000:0.01 13001:0.01 13002:0.01 13003:0.01 13004:0.01 13005:0.01 13006:0.01 13007:0.01 13008:0.01 14000:0.01 14001:0.01 14002:0.01 14003:0.01 14004:0.01 14005:0.01 14006:0.01 14007:0.01 14008:0.01 15000:0.01 15001:0.01 15002:0.01 15003:0.01 15004:0.01 15005:0.01 15006:0.01 15007:0.01 15008:0.01 16000:0.01 16001:0.01 16002:0.01 16003:0.01 16004:0.01 16005:0.01 16006:0.01 16007:0.01 16008:0.01 17000:0.01 17001:0.01 17002:0.01 17003:0.01 17004:0.01 17005:0.01 17006:0.01 17007:0.01 17008:0.01 18000:0.01 18001:0.01 18002:0.01 18003:0.01 18004:0.01 18005:0.01 18006:0.01 18007:0.01 18008:0.01 19000:0.01 19001:0.01 19002:0.01 19003:0.01 19004:0.01 19005:0.01 19006:0.01 19007:0.01 19008:0.01 
0.0 0.0 0.0 0.010940675888994049 0.0 0.0 0.0 0.0 0.0 0.0 0.0020792629208238513 0.0 0.0 0.0 0.01517479336157252 0.0 0.0 0.0 0.0 0.0 0.0 0.0 0.010602516775621011 0.0 0.0 0.0 0.0 0.0 0.0 0.0 0:0.01 1:0.01 2:0.99 3:0.99 4:0.99 5:0.01 6:0.01 7:0.01 8:0.01 9:0.01 10:0.01 11:0.01 12:0.01 13:0.01 1000:0.01 1001:0.99 1002:0.99 1003:0.99 1004:0.99 1005:0.99 1006:0.99 1007:0.99 1008:0.01 1009:0.01 1010:0.01 1011:0.01 1012:0.01 1013:0.01 2000:0.99 2001:0.99 2002:0.01 2003:0.01 2004:0.01 2005:0.01 2006:0.99 2007:0.99 2008:0.01 2009:0.01 2010:0.01 2011:0.01 2012:0.01 2013:0.01 3000:0.01 3001:0.99 3002:0.01 3003:0.01 3004:0.01 3005:0.01 3006:0.01 3007:0.01 3008:0.99 3009:0.01 3010:0.01 3011:0.01 3012:0.01 3013:0.01 4000:0.99 4001:0.99 4002:0.01 4003:0.01 4004:0.01 4005:0.01 4006:0.01 4007:0.01 4008:0.99 4009:0.01 4010:0.01 4011:0.01 4012:0.01 4013:0.01 5000:0.01 5001:0.99 5002:0.99 5003:0.01 5004:0.01 5005:0.01 5006:0.01 5007:0.01 5008:0.01 5009:0.99 5010:0.01 5011:0.01 5012:0.01 5013:0.01 6000:0.01 6001:0.01 6002:0.01 6003:0.01 6004:0.01 6005:0.01 6006:0.01 6007:0.01 6008:0.01 6009:0.99 6010:0.99 6011:0.01 6012:0.01 6013:0.01 7000:0.01 7001:0.01 7002:0.01 7003:0.01 7004:0.01 7005:0.01 7006:0.01 7007:0.01 7008:0.01 7009:0.99 7010:0.01 7011:0.01 7012:0.01 7013:0.01 8000:0.01 8001:0.01 8002:0.01 8003:0.01 8004:0.01 8005:0.01 8006:0.01 8007:0.01 8008:0.99 8009:0.99 8010:0.01 8011:0.01 8012:0.01 8013:0.01 9000:0.01 9001:0.01 9002:0.01 9003:0.01 9004:0.01 9005:0.01 9006:0.01 9007:0.01 9008:0.99 9009:0.01 9010:0.01 9011:0.01 9012:0.01 9013:0.01 10000:0.01 10001:0.01 10002:0.01 10003:0.01 10004:0.01 10005:0.01 10006:0.01 10007:0.01 10008:0.99 10009:0.99 10010:0.01 10011:0.01 10012:0.01 10013:0.99 11000:0.01 11001:0.01 11002:0.01 11003:0.01 11004:0.01 11005:0.01 11006:0.01 11007:0.99 11008:0.01 11009:0.01 11010:0.99 11011:0.99 11012:0.99 11013:0.99 12000:0.01 12001:0.01 12002:0.01 12003:0.01 12004:0.01 12005:0.01 12006:0.99 12007:0.99 12008:0.99 12009:0.99 12010:0.99 12011:0.01 12012:0.01 12013:0.01 13000:0.01 13001:0.01 13002:0.01 13003:0.01 13004:0.01 13005:0.01 13006:0.99 13007:0.99 13008:0.99 13009:0.01 13010:0.01 13011:0.01 13012:0.01 13013:0.01 
0.0 0.0 0.0149760587258144 0.0 0.0 0.0 0.0 0.0 0.01196125409809056 0.0 0.0 0.0 0.005531652413075143 0.0 0.0 0.0 0.0 0.0 0.0 0.0 0.0022155327542020204 0.0 2.5256498142642243E-4 0.0 0.0 0.0 0.0 0.0 0.0 0.020557093762185185 0:0.99 1:0.01 2:0.01 3:0.99 4:0.99 5:0.99 6:0.99 7:0.99 8:0.99 9:0.01 10:0.01 11:0.01 12:0.01 13:0.01 14:0.01 15:0.01 16:0.01 1000:0.01 1001:0.99 1002:0.99 1003:0.99 1004:0.99 1005:0.99 1006:0.99 1007:0.99 1008:0.99 1009:0.99 1010:0.01 1011:0.01 1012:0.01 1013:0.01 1014:0.01 1015:0.01 1016:0.01 2000:0.99 2001:0.99 2002:0.99 2003:0.01 2004:0.01 2005:0.01 2006:0.01 2007:0.01 2008:0.99 2009:0.99 2010:0.99 2011:0.01 2012:0.01 2013:0.01 2014:0.01 2015:0.01 2016:0.01 3000:0.01 3001:0.99 3002:0.99 3003:0.01 3004:0.01 3005:0.01 3006:0.01 3007:0.01 3008:0.01 3009:0.01 3010:0.99 3011:0.99 3012:0.01 3013:0.01 3014:0.01 3015:0.01 3016:0.01 4000:0.01 4001:0.99 4002:0.99 4003:0.99 4004:0.01 4005:0.01 4006:0.01 4007:0.01 4008:0.01 4009:0.01 4010:0.01 4011:0.99 4012:0.99 4013:0.01 4014:0.01 4015:0.01 4016:0.01 5000:0.01 5001:0.01 5002:0.99 5003:0.01 5004:0.01 5005:0.01 5006:0.01 5007:0.01 5008:0.01 5009:0.01 5010:0.01 5011:0.99 5012:0.99 5013:0.99 5014:0.01 5015:0.01 5016:0.01 6000:0.01 6001:0.01 6002:0.01 6003:0.01 6004:0.01 6005:0.01 6006:0.01 6007:0.01 6008:0.01 6009:0.01 6010:0.01 6011:0.01 6012:0.99 6013:0.99 6014:0.01 6015:0.01 6016:0.01 7000:0.01 7001:0.01 7002:0.01 7003:0.01 7004:0.01 7005:0.01 7006:0.01 7007:0.01 7008:0.01 7009:0.01 7010:0.01 7011:0.01 7012:0.99 7013:0.99 7014:0.01 7015:0.01 7016:0.01 8000:0.01 8001:0.01 8002:0.01 8003:0.01 8004:0.01 8005:0.01 8006:0.01 8007:0.01 8008:0.01 8009:0.01 8010:0.01 8011:0.01 8012:0.99 8013:0.99 8014:0.01 8015:0.01 8016:0.01 9000:0.01 9001:0.01 9002:0.01 9003:0.01 9004:0.01 9005:0.01 9006:0.01 9007:0.01 9008:0.01 9009:0.01 9010:0.01 9011:0.01 9012:0.99 9013:0.99 9014:0.99 9015:0.01 9016:0.01 10000:0.01 10001:0.01 10002:0.01 10003:0.01 10004:0.01 10005:0.01 10006:0.01 10007:0.01 10008:0.01 10009:0.01 10010:0.01 10011:0.99 10012:0.99 10013:0.99 10014:0.01 10015:0.01 10016:0.01 11000:0.01 11001:0.01 11002:0.01 11003:0.01 11004:0.01 11005:0.01 11006:0.01 11007:0.01 11008:0.01 11009:0.01 11010:0.99 11011:0.99 11012:0.99 11013:0.01 11014:0.01 11015:0.01 11016:0.01 12000:0.01 12001:0.01 12002:0.01 12003:0.01 12004:0.01 12005:0.01 12006:0.01 12007:0.01 12008:0.01 12009:0.99 12010:0.99 12011:0.99 12012:0.01 12013:0.01 12014:0.01 12015:0.01 12016:0.01 13000:0.01 13001:0.01 13002:0.01 13003:0.01 13004:0.01 13005:0.01 13006:0.01 13007:0.99 13008:0.01 13009:0.99 13010:0.99 13011:0.99 13012:0.01 13013:0.01 13014:0.01 13015:0.01 13016:0.01 14000:0.01 14001:0.01 14002:0.01 14003:0.01 14004:0.01 14005:0.01 14006:0.01 14007:0.99 14008:0.99 14009:0.01 14010:0.01 14011:0.01 14012:0.01 14013:0.01 14014:0.01 14015:0.01 14016:0.01 15000:0.01 15001:0.01 15002:0.01 15003:0.01 15004:0.01 15005:0.01 15006:0.99 15007:0.99 15008:0.99 15009:0.01 15010:0.01 15011:0.99 15012:0.99 15013:0.99 15014:0.99 15015:0.99 15016:0.99 16000:0.01 16001:0.01 16002:0.01 16003:0.01 16004:0.01 16005:0.99 16006:0.99 16007:0.99 16008:0.99 16009:0.99 16010:0.99 16011:0.99 16012:0.99 16013:0.99 16014:0.99 16015:0.99 16016:0.99 
0.01223822359803359 0.0 0.0 0.0 0.0 0.0 0.0 0.0 0.0 0.0 0.0 0.0 0.0 0.0 0.0 0.019008528309147076 0.0 0.0 0.0 0.0 0.0 0.0 0.019975065072989566 0.0 0.003730209089374826 0.0 0.007211973109789145 8.528475270446289E-4 0.016722711664854836 0.0 0:0.01 1:0.01 2:0.01 3:0.01 4:0.01 5:0.99 6:0.99 7:0.99 8:0.99 9:0.99 10:0.01 11:0.01 12:0.01 1000:0.01 1001:0.01 1002:0.01 1003:0.01 1004:0.01 1005:0.99 1006:0.99 1007:0.01 1008:0.01 1009:0.01 1010:0.99 1011:0.99 1012:0.01 2000:0.01 2001:0.01 2002:0.01 2003:0.01 2004:0.01 2005:0.01 2006:0.01 2007:0.01 2008:0.01 2009:0.01 2010:0.01 2011:0.99 2012:0.99 3000:0.01 3001:0.01 3002:0.01 3003:0.01 3004:0.01 3005:0.01 3006:0.01 3007:0.01 3008:0.01 3009:0.01 3010:0.01 3011:0.01 3012:0.99 4000:0.01 4001:0.01 4002:0.01 4003:0.01 4004:0.01 4005:0.01 4006:0.01 4007:0.01 4008:0.01 4009:0.01 4010:0.01 4011:0.01 4012:0.99 5000:0.01 5001:0.01 5002:0.01 5003:0.01 5004:0.01 5005:0.01 5006:0.01 5007:0.01 5008:0.01 5009:0.01 5010:0.01 5011:0.01 5012:0.99 6000:0.01 6001:0.01 6002:0.01 6003:0.01 6004:0.01 6005:0.01 6006:0.01 6007:0.01 6008:0.01 6009:0.01 6010:0.99 6011:0.99 6012:0.99 7000:0.01 7001:0.01 7002:0.01 7003:0.01 7004:0.01 7005:0.01 7006:0.01 7007:0.01 7008:0.01 7009:0.99 7010:0.99 7011:0.99 7012:0.01 8000:0.01 8001:0.01 8002:0.01 8003:0.01 8004:0.01 8005:0.99 8006:0.99 8007:0.99 8008:0.99 8009:0.99 8010:0.01 8011:0.01 8012:0.01 9000:0.01 9001:0.01 9002:0.99 9003:0.99 9004:0.99 9005:0.01 9006:0.01 9007:0.01 9008:0.01 9009:0.01 9010:0.01 9011:0.01 9012:0.01 10000:0.99 10001:0.99 10002:0.99 10003:0.01 10004:0.01 10005:0.01 10006:0.01 10007:0.01 10008:0.01 10009:0.01 10010:0.01 10011:0.01 10012:0.01 11000:0.01 11001:0.01 11002:0.99 11003:0.99 11004:0.01 11005:0.01 11006:0.01 11007:0.01 11008:0.01 11009:0.01 11010:0.01 11011:0.01 11012:0.01 12000:0.01 12001:0.01 12002:0.01 12003:0.01 12004:0.99 12005:0.99 12006:0.99 12007:0.01 12008:0.01 12009:0.01 12010:0.01 12011:0.01 12012:0.01 
0.0 0.0 0.0 0.0 0.0 0.0 0.0 0.0 0.0 0.0 0.007419826302661454 0.0 0.0 0.0 0.007808250719786447 0.0 0.0 0.0 0.0 0.0 0.0 0.0 0.0 0.0 0.0 0.0 0.0 0.0 0.0 0.0 0:0.01 1:0.01 2:0.01 3:0.99 4:0.99 5:0.99 6:0.01 7:0.01 8:0.01 9:0.01 10:0.01 11:0.01 12:0.01 13:0.01 14:0.01 15:0.01 1000:0.01 1001:0.99 1002:0.99 1003:0.99 1004:0.99 1005:0.99 1006:0.99 1007:0.99 1008:0.01 1009:0.01 1010:0.01 1011:0.01 1012:0.01 1013:0.01 1014:0.01 1015:0.01 2000:0.99 2001:0.99 2002:0.01 2003:0.01 2004:0.01 2005:0.01 2006:0.01 2007:0.99 2008:0.99 2009:0.01 2010:0.01 2011:0.01 2012:0.01 2013:0.01 2014:0.01 2015:0.01 3000:0.99 3001:0.99 3002:0.01 3003:0.01 3004:0.01 3005:0.01 3006:0.01 3007:0.01 3008:0.01 3009:0.99 3010:0.99 3011:0.01 3012:0.01 3013:0.01 3014:0.01 3015:0.01 4000:0.01 4001:0.99 4002:0.99 4003:0.01 4004:0.01 4005:0.01 4006:0.01 4007:0.01 4008:0.01 4009:0.01 4010:0.99 4011:0.99 4012:0.01 4013:0.01 4014:0.01 4015:0.01 5000:0.99 5001:0.99 5002:0.99 5003:0.01 5004:0.01 5005:0.01 5006:0.01 5007:0.01 5008:0.01 5009:0.01 5010:0.99 5011:0.99 5012:0.01 5013:0.01 5014:0.01 5015:0.01 6000:0.01 6001:0.01 6002:0.01 6003:0.01 6004:0.01 6005:0.01 6006:0.01 6007:0.01 6008:0.01 6009:0.01 6010:0.01 6011:0.99 6012:0.99 6013:0.01 6014:0.01 6015:0.01 7000:0.01 7001:0.01 7002:0.01 7003:0.01 7004:0.01 7005:0.01 7006:0.01 7007:0.01 7008:0.01 7009:0.01 7010:0.99 7011:0.99 7012:0.99 7013:0.01 7014:0.01 7015:0.01 8000:0.01 8001:0.01 8002:0.01 8003:0.01 8004:0.01 8005:0.01 8006:0.01 8007:0.01 8008:0.01 8009:0.01 8010:0.01 8011:0.99 8012:0.99 8013:0.01 8014:0.01 8015:0.01 9000:0.01 9001:0.01 9002:0.01 9003:0.01 9004:0.01 9005:0.01 9006:0.01 9007:0.01 9008:0.01 9009:0.01 9010:0.99 9011:0.99 9012:0.99 9013:0.01 9014:0.01 9015:0.01 10000:0.01 10001:0.01 10002:0.01 10003:0.01 10004:0.01 10005:0.01 10006:0.01 10007:0.01 10008:0.01 10009:0.01 10010:0.99 10011:0.99 10012:0.99 10013:0.01 10014:0.01 10015:0.01 11000:0.01 11001:0.01 11002:0.01 11003:0.01 11004:0.01 11005:0.01 11006:0.01 11007:0.01 11008:0.01 11009:0.99 11010:0.99 11011:0.99 11012:0.01 11013:0.01 11014:0.01 11015:0.01 12000:0.01 12001:0.01 12002:0.01 12003:0.01 12004:0.01 12005:0.01 12006:0.01 12007:0.01 12008:0.99 12009:0.99 12010:0.99 12011:0.01 12012:0.01 12013:0.01 12014:0.01 12015:0.01 13000:0.01 13001:0.01 13002:0.01 13003:0.01 13004:0.01 13005:0.01 13006:0.01 13007:0.01 13008:0.99 13009:0.99 13010:0.99 13011:0.01 13012:0.01 13013:0.01 13014:0.01 13015:0.01 14000:0.01 14001:0.01 14002:0.01 14003:0.01 14004:0.01 14005:0.01 14006:0.99 14007:0.99 14008:0.99 14009:0.01 14010:0.01 14011:0.01 14012:0.01 14013:0.01 14014:0.01 14015:0.99 15000:0.01 15001:0.01 15002:0.01 15003:0.01 15004:0.01 15005:0.01 15006:0.99 15007:0.99 15008:0.99 15009:0.99 15010:0.99 15011:0.99 15012:0.99 15013:0.99 15014:0.99 15015:0.99 16000:0.01 16001:0.01 16002:0.01 16003:0.01 16004:0.01 16005:0.99 16006:0.99 16007:0.99 16008:0.99 16009:0.99 16010:0.99 16011:0.99 16012:0.99 16013:0.01 16014:0.01 16015:0.01 
0.0 0.008809968612468279 0.0024184540126783107 9.85634821797028E-4 0.00691406619811593 0.0 0.010672838332626491 0.002587162870059911 0.0 0.005721733870281536 0.0 0.020309556420289733 0.007629495634830116 0.0 0.01522778616284144 0.0 0.004756597677520839 0.0020249471616629313 0.005157226056449498 0.017140517606013428 0.009570137506566925 0.0 0.0 0.014605680068761348 0.007232283890082301 0.011923015342864824 0.0011283228976043695 0.0 0.001585376721934617 0.0470061932158003 0:0.01 1:0.01 2:0.01 3:0.01 4:0.01 5:0.99 6:0.99 7:0.99 8:0.01 9:0.01 10:0.01 11:0.01 12:0.01 13:0.01 1000:0.01 1001:0.01 1002:0.01 1003:0.01 1004:0.99 1005:0.99 1006:0.99 1007:0.99 1008:0.99 1009:0.99 1010:0.99 1011:0.01 1012:0.01 1013:0.01 2000:0.01 2001:0.01 2002:0.01 2003:0.01 2004:0.99 2005:0.99 2006:0.01 2007:0.01 2008:0.01 2009:0.01 2010:0.99 2011:0.99 2012:0.99 2013:0.01 3000:0.01 3001:0.01 3002:0.01 3003:0.01 3004:0.01 3005:0.01 3006:0.01 3007:0.01 3008:0.01 3009:0.01 3010:0.01 3011:0.01 3012:0.99 3013:0.99 4000:0.01 4001:0.01 4002:0.01 4003:0.01 4004:0.01 4005:0.01 4006:0.01 4007:0.01 4008:0.01 4009:0.01 4010:0.01 4011:0.01 4012:0.01 4013:0.99 5000:0.01 5001:0.01 5002:0.01 5003:0.01 5004:0.01 5005:0.01 5006:0.01 5007:0.01 5008:0.01 5009:0.01 5010:0.01 5011:0.01 5012:0.01 5013:0.99 6000:0.01 6001:0.01 6002:0.01 6003:0.01 6004:0.01 6005:0.01 6006:0.01 6007:0.01 6008:0.01 6009:0.01 6010:0.01 6011:0.01 6012:0.01 6013:0.99 7000:0.01 7001:0.01 7002:0.01 7003:0.01 7004:0.01 7005:0.01 7006:0.01 7007:0.01 7008:0.01 7009:0.01 7010:0.01 7011:0.01 7012:0.01 7013:0.99 8000:0.01 8001:0.01 8002:0.01 8003:0.01 8004:0.01 8005:0.01 8006:0.01 8007:0.01 8008:0.01 8009:0.01 8010:0.99 8011:0.99 8012:0.99 8013:0.01 9000:0.01 9001:0.01 9002:0.01 9003:0.01 9004:0.01 9005:0.01 9006:0.01 9007:0.99 9008:0.99 9009:0.99 9010:0.99 9011:0.99 9012:0.01 9013:0.01 10000:0.01 10001:0.01 10002:0.01 10003:0.99 10004:0.99 10005:0.99 10006:0.99 10007:0.99 10008:0.99 10009:0.01 10010:0.01 10011:0.01 10012:0.01 10013:0.01 11000:0.01 11001:0.99 11002:0.99 11003:0.99 11004:0.99 11005:0.01 11006:0.01 11007:0.01 11008:0.01 11009:0.01 11010:0.01 11011:0.01 11012:0.01 11013:0.01 12000:0.99 12001:0.99 12002:0.99 12003:0.01 12004:0.01 12005:0.01 12006:0.01 12007:0.01 12008:0.01 12009:0.01 12010:0.01 12011:0.01 12012:0.01 12013:0.01 13000:0.99 13001:0.99 13002:0.99 13003:0.99 13004:0.01 13005:0.01 13006:0.01 13007:0.01 13008:0.01 13009:0.01 13010:0.01 13011:0.01 13012:0.01 13013:0.01 14000:0.01 14001:0.01 14002:0.01 14003:0.99 14004:0.99 14005:0.99 14006:0.01 14007:0.01 14008:0.01 14009:0.01 14010:0.01 14011:0.01 14012:0.01 14013:0.01 15000:0.01 15001:0.01 15002:0.01 15003:0.01 15004:0.99 15005:0.99 15006:0.99 15007:0.01 15008:0.01 15009:0.01 15010:0.01 15011:0.01 15012:0.01 15013:0.01 
0.03511134486093067 0.0 0.0 0.0 0.0 0.006920671064388722 0.0 0.0 0.0 0.0 0.0 0.00534872177392478 0.0 0.0 0.0 0.0 0.0 0.0 0.0 0.0 0.0 0.0 0.0 0.0 0.0 0.0 0.0 0.0 0.0 0.006878360808086345 0:0.01 1:0.01 2:0.99 3:0.99 4:0.99 5:0.99 6:0.99 7:0.01 8:0.01 9:0.01 10:0.01 11:0.01 12:0.01 13:0.01 14:0.01 15:0.01 16:0.01 1000:0.99 1001:0.99 1002:0.99 1003:0.99 1004:0.99 1005:0.99 1006:0.99 1007:0.99 1008:0.01 1009:0.01 1010:0.01 1011:0.01 1012:0.01 1013:0.01 1014:0.01 1015:0.01 1016:0.01 2000:0.99 2001:0.99 2002:0.01 2003:0.01 2004:0.01 2005:0.01 2006:0.99 2007:0.99 2008:0.99 2009:0.01 2010:0.01 2011:0.01 2012:0.01 2013:0.01 2014:0.01 2015:0.01 2016:0.01 3000:0.99 3001:0.99 3002:0.01 3003:0.01 3004:0.01 3005:0.01 3006:0.01 3007:0.01 3008:0.99 3009:0.99 3010:0.01 3011:0.01 3012:0.01 3013:0.01 3014:0.01 3015:0.01 3016:0.01 4000:0.01 4001:0.99 4002:0.01 4003:0.01 4004:0.01 4005:0.01 4006:0.01 4007:0.01 4008:0.01 4009:0.99 4010:0.99 4011:0.01 4012:0.01 4013:0.01 4014:0.01 4015:0.01 4016:0.01 5000:0.01 5001:0.99 5002:0.01 5003:0.01 5004:0.01 5005:0.01 5006:0.01 5007:0.01 5008:0.01 5009:0.99 5010:0.99 5011:0.01 5012:0.01 5013:0.01 5014:0.01 5015:0.01 5016:0.01 6000:0.01 6001:0.01 6002:0.99 6003:0.01 6004:0.01 6005:0.01 6006:0.01 6007:0.01 6008:0.01 6009:0.01 6010:0.99 6011:0.99 6012:0.01 6013:0.01 6014:0.01 6015:0.01 6016:0.01 7000:0.01 7001:0.01 7002:0.01 7003:0.01 7004:0.01 7005:0.01 7006:0.01 7007:0.01 7008:0.01 7009:0.01 7010:0.99 7011:0.99 7012:0.01 7013:0.01 7014:0.01 7015:0.01 7016:0.01 8000:0.01 8001:0.01 8002:0.01 8003:0.01 8004:0.01 8005:0.01 8006:0.01 8007:0.01 8008:0.01 8009:0.01 8010:0.01 8011:0.99 8012:0.01 8013:0.01 8014:0.01 8015:0.01 8016:0.01 9000:0.01 9001:0.01 9002:0.01 9003:0.01 9004:0.99 9005:0.01 9006:0.01 9007:0.01 9008:0.01 9009:0.01 9010:0.01 9011:0.99 9012:0.99 9013:0.01 9014:0.01 9015:0.01 9016:0.01 10000:0.01 10001:0.01 10002:0.01 10003:0.99 10004:0.01 10005:0.01 10006:0.01 10007:0.01 10008:0.01 10009:0.01 10010:0.01 10011:0.99 10012:0.01 10013:0.01 10014:0.01 10015:0.01 10016:0.01 11000:0.01 11001:0.01 11002:0.01 11003:0.01 11004:0.01 11005:0.01 11006:0.01 11007:0.01 11008:0.01 11009:0.01 11010:0.99 11011:0.99 11012:0.01 11013:0.01 11014:0.01 11015:0.01 11016:0.01 12000:0.01 12001:0.01 12002:0.01 12003:0.01 12004:0.01 12005:0.01 12006:0.01 12007:0.01 12008:0.01 12009:0.99 12010:0.99 12011:0.01 12012:0.01 12013:0.01 12014:0.99 12015:0.99 12016:0.99 13000:0.01 13001:0.01 13002:0.01 13003:0.01 13004:0.01 13005:0.01 13006:0.01 13007:0.01 13008:0.01 13009:0.01 13010:0.99 13011:0.99 13012:0.01 13013:0.01 13014:0.99 13015:0.99 13016:0.99 14000:0.01 14001:0.01 14002:0.01 14003:0.01 14004:0.01 14005:0.01 14006:0.01 14007:0.01 14008:0.99 14009:0.99 14010:0.01 14011:0.99 14012:0.99 14013:0.99 14014:0.99 14015:0.01 14016:0.01 15000:0.01 15001:0.01 15002:0.01 15003:0.01 15004:0.01 15005:0.01 15006:0.01 15007:0.01 15008:0.99 15009:0.99 15010:0.99 15011:0.99 15012:0.99 15013:0.01 15014:0.01 15015:0.01 15016:0.01 
0.055307541584093865 0.0 0.04607870523466594 0.016954850694733993 0.032303622687989315 0.02556440873869023 0.0 0.01831739327204915 0.03232714793008923 0.0 0.0 0.0039872874512839745 0.016435216974484655 0.015292752001549548 0.0 0.03028710916647257 0.024509633681098222 0.011740571588957228 0.014857716191797158 0.018980076804138588 0.012170299390752919 0.004329182361260478 0.0458773226233282 0.022576602754298496 0.01864776968914074 0.02718712959174998 0.005737972574101608 0.023380631288452688 0.03311883546025681 0.02641343210987574 0:0.01 1:0.01 2:0.01 3:0.01 4:0.01 5:0.01 6:0.01 7:0.01 8:0.01 9:0.01 10:0.01 11:0.01 12:0.01 13:0.99 14:0.01 1000:0.01 1001:0.01 1002:0.01 1003:0.01 1004:0.01 1005:0.01 1006:0.01 1007:0.01 1008:0.01 1009:0.01 1010:0.01 1011:0.01 1012:0.01 1013:0.99 1014:0.01 2000:0.01 2001:0.01 2002:0.01 2003:0.01 2004:0.01 2005:0.01 2006:0.01 2007:0.01 2008:0.01 2009:0.01 2010:0.01 2011:0.01 2012:0.01 2013:0.01 2014:0.01 3000:0.01 3001:0.01 3002:0.01 3003:0.01 3004:0.01 3005:0.01 3006:0.01 3007:0.01 3008:0.01 3009:0.01 3010:0.01 3011:0.01 3012:0.01 3013:0.01 3014:0.01 4000:0.01 4001:0.01 4002:0.01 4003:0.01 4004:0.01 4005:0.01 4006:0.01 4007:0.01 4008:0.99 4009:0.01 4010:0.01 4011:0.01 4012:0.01 4013:0.01 4014:0.01 5000:0.01 5001:0.01 5002:0.01 5003:0.01 5004:0.01 5005:0.99 5006:0.99 5007:0.99 5008:0.99 5009:0.99 5010:0.01 5011:0.01 5012:0.01 5013:0.01 5014:0.01 6000:0.01 6001:0.01 6002:0.01 6003:0.01 6004:0.99 6005:0.99 6006:0.99 6007:0.01 6008:0.01 6009:0.99 6010:0.99 6011:0.99 6012:0.01 6013:0.01 6014:0.01 7000:0.01 7001:0.01 7002:0.01 7003:0.01 7004:0.99 7005:0.99 7006:0.01 7007:0.01 7008:0.01 7009:0.01 7010:0.01 7011:0.99 7012:0.99 7013:0.99 7014:0.01 8000:0.01 8001:0.01 8002:0.01 8003:0.01 8004:0.01 8005:0.01 8006:0.01 8007:0.01 8008:0.01 8009:0.01 8010:0.01 8011:0.01 8012:0.01 8013:0.99 8014:0.99 9000:0.01 9001:0.01 9002:0.01 9003:0.01 9004:0.01 9005:0.01 9006:0.01 9007:0.01 9008:0.01 9009:0.01 9010:0.01 9011:0.01 9012:0.01 9013:0.01 9014:0.99 10000:0.01 10001:0.01 10002:0.01 10003:0.01 10004:0.01 10005:0.01 10006:0.01 10007:0.01 10008:0.01 10009:0.01 10010:0.01 10011:0.01 10012:0.01 10013:0.99 10014:0.99 11000:0.01 11001:0.01 11002:0.01 11003:0.01 11004:0.01 11005:0.01 11006:0.01 11007:0.01 11008:0.01 11009:0.01 11010:0.01 11011:0.01 11012:0.01 11013:0.99 11014:0.99 12000:0.01 12001:0.01 12002:0.01 12003:0.01 12004:0.01 12005:0.01 12006:0.01 12007:0.01 12008:0.01 12009:0.01 12010:0.01 12011:0.01 12012:0.01 12013:0.99 12014:0.99 13000:0.01 13001:0.01 13002:0.01 13003:0.01 13004:0.01 13005:0.01 13006:0.01 13007:0.01 13008:0.01 13009:0.01 13010:0.01 13011:0.99 13012:0.99 13013:0.99 13014:0.01 14000:0.01 14001:0.01 14002:0.01 14003:0.01 14004:0.01 14005:0.01 14006:0.01 14007:0.01 14008:0.99 14009:0.99 14010:0.99 14011:0.99 14012:0.01 14013:0.01 14014:0.01 15000:0.01 15001:0.01 15002:0.01 15003:0.99 15004:0.99 15005:0.99 15006:0.99 15007:0.99 15008:0.99 15009:0.99 15010:0.01 15011:0.01 15012:0.01 15013:0.01 15014:0.01 16000:0.01 16001:0.99 16002:0.99 16003:0.99 16004:0.99 16005:0.01 16006:0.01 16007:0.01 16008:0.01 16009:0.01 16010:0.01 16011:0.01 16012:0.01 16013:0.01 16014:0.01 17000:0.99 17001:0.99 17002:0.99 17003:0.01 17004:0.01 17005:0.01 17006:0.01 17007:0.01 17008:0.01 17009:0.01 17010:0.01 17011:0.01 17012:0.01 17013:0.01 17014:0.01 18000:0.99 18001:0.99 18002:0.99 18003:0.99 18004:0.01 18005:0.01 18006:0.01 18007:0.01 18008:0.01 18009:0.01 18010:0.01 18011:0.01 18012:0.01 18013:0.01 18014:0.01 19000:0.01 19001:0.01 19002:0.01 19003:0.99 19004:0.99 19005:0.99 19006:0.01 19007:0.01 19008:0.01 19009:0.01 19010:0.01 19011:0.01 19012:0.01 19013:0.01 19014:0.01 20000:0.01 20001:0.01 20002:0.01 20003:0.01 20004:0.99 20005:0.99 20006:0.99 20007:0.99 20008:0.01 20009:0.01 20010:0.01 20011:0.01 20012:0.01 20013:0.01 20014:0.01 
